svm_type c_svc
kernel_type linear
nr_class 103
total_sv 628
rho 0.7579734723829245 0.22952167021004832 1.3713438866030982 0.2102490119434118 -0.26024212883559017 -2.4170061271979892 1.9340041070454916 4.632914113015486 1.7227985574396294 -0.8217824600777586 0.5462222260765494 -0.41591790954359703 0.045336848031659806 -1.176410960224022 0.2003704913771327 0.231339465505759 -0.8411260889698806 -0.9198169287050704 -0.6615980195471046 0.4015332802181799 -2.6185859258701343 -0.6874800215765067 -1.7024232902518686 -2.858828961422409 1.3978453890881275 -2.042141137951396 0.4174609549928736 0.23592018636974427 0.6433935552395317 -2.454940051251491 0.8130261555916711 -0.11261743382792792 -1.0561598095327378 0.4137384995461053 0.3437017120416508 0.21491739292714648 -0.5929295982526367 0.0722828796258818 -1.0930195488201528 0.5876619610800763 0.7247572913183017 0.9635856576171428 0.19460124514519053 -0.9667477281531198 -1.53943560791658 0.5968875963433127 -0.2784514635070551 0.278277509659454 0.5358608928686223 4.512728737631478 2.0547645408448307 1.600950420603813 1.9787033506024125 0.054411531219254516 -0.7018715749158732 -0.14837665432830338 -0.6618682007331761 -0.971285437526275 -1.0683134640035585 0.5237865239392363 -0.2793273805620846 -1.0529284932540859 0.9732487135376329 0.7306164269256266 -1.2849832740241478 -1.0089796533216766 2.5290468263360446 0.39738637362636703 -0.03678354109220135 0.10745375056091418 -1.5628510408385816 -0.040164134148999116 0.7223905111208883 1.5142393564244108 -0.3974720066323403 1.1120990775239292 0.8670821517126802 0.9120658071786645 -1.9373179573609318 -1.0833607917249652 -1.0810196243993886 -0.699272114584046 1.8070117250715103 0.828152647715681 2.77950049639702 -1.7086997050684554 2.756451734987403 1.8346964548433535 2.0593123912399 1.673473033834166 -0.7321619825393155 -0.23600530332320888 -0.19950797035732581 0.7121052384630736 0.1666922193459876 -0.2851301199250263 1.3027498650764673 0.14720613473419183 0.4562686916452212 -1.1604127799266641 -2.0708841636240924 -2.955273235233339 -2.2017495545305077 -0.4223825929496425 -1.161070992213578 -1.5801073990457712 -2.27142946195284 0.991829752973012 0.8585516517726686 3.1688612526544375 -1.2285185578511348 -1.461820329840614 -1.5536974366131484 -0.8633715606159349 -1.0844862261333619 -0.6395310450422406 -0.6189294298945439 -1.3516953590006668 -2.133610960504506 -3.6254152497937873 -0.8695637542909953 -3.9735259743493256 -0.4977997448318291 -1.1525900120642014 -0.5247352376513329 -0.1571073408030328 -1.354744554563354 -0.8894085982794542 -1.6304886482959737 -1.6275032602044064 -0.8721963752636591 -0.7896245477690809 -0.6304862511271703 -1.0074402704592198 -1.4695584927099015 -2.104021786838029 -0.5655456886507018 -2.0629971368259037 -1.3567335242683114 -0.8230852253850942 -0.7538577376810469 -0.0819678217941513 -1.354178934137689 -1.448669791918484 -2.880217501885159 -3.870577175998713 -1.7195630173048555 -4.568534107508276 -0.1291131639253547 -0.7940949918492661 -0.36405897392306447 0.3267186317984979 1.2303225162140607 0.40367120347306645 -1.845059745144529 -1.8901881718520046 -1.0218183329491386 -0.9181249808388319 -0.24471537353774936 -1.5251855107084182 -1.7397082367184915 -1.291777507919397 -1.85437886549998 -0.23966224226966834 -3.2322063894980273 -1.3889979269528727 -1.870762658607322 0.7226591732776573 -3.1630810255965427 -3.0651974795969985 -1.2216208255289849 -1.8495358397505934 -1.3857170291497567 -3.35650902380164 -6.027544287759697 -1.3244843046902874 0.34215396640717455 -0.9257798763062995 0.24101239837977861 -1.888679701259874 -1.670264442334635 -1.2594354887394654 -0.3619367014656779 0.1186836509906312 -0.5889496444857253 -0.34242137053400457 -2.08479208487767 -0.5712983099952316 0.5318755531246289 -0.3427043316636075 1.9862268056132293 -0.9600636561672977 -0.9324929305841926 -2.3402820378586697 0.048031315906557716 0.247525453310715 -0.3088628145719745 -0.01833962973895051 -3.665762261787921 -1.1087139462414213 -1.2711810320143355 -2.0009547825375327 -3.035139997774732 1.7825474324558481 0.6354255146344575 0.2969054737555391 0.9429203429466445 2.165298602983034 1.9575734590006442 2.2105950727503307 -0.37789599584780426 0.5919798191379192 0.35516495042302954 0.28859136803988455 -0.8634126809246632 0.2861840370595291 0.4099056817392923 -0.2804757336188006 -1.6904943668546633 -0.08130000145501237 0.6057499148668539 -1.393418389550163 0.34918393083294247 0.24983667377552482 -0.4954821720305202 0.9752760972127406 -0.9298620038595031 0.49953240479419964 0.5851206256468616 0.5480462748266998 -0.275036372919056 0.23332843768599165 0.07789966185955112 0.2858428276187285 1.1353230330324924 -1.1729678456327794 0.16856978578753332 -0.01752412792027636 0.38586905019665396 0.05400219123464394 1.5674186652208273 1.0179790060680896 2.582386225650439 0.6872233848777669 -0.2755338493458602 -1.225677620295445 0.5391262710681315 0.9427510372665191 0.312423454657283 0.4531383167709092 -0.03209413695167049 1.424005588813372 2.9920697631962945 1.194865149565083 0.342545469589224 0.3241824425199688 -0.03249263622079103 -0.02079718122656844 -0.012148469128476485 -0.3032285161956782 1.2885475887367794 -0.19484845892784328 -0.9857057430867787 2.1611184192497515 1.7392660681202885 -0.5143711403327862 -0.0846500350097878 2.5777850896245655 1.6376179551740038 -0.5617392666788067 0.6219037595193797 -1.3969741681750654 1.240697558468861 2.3902964901918207 2.9341025626037824 -0.07986617748836694 2.371853720164891 2.596424458291118 0.6260922931258835 -1.7347622954368862 -0.17292635936349787 -0.28570472661143087 0.7520687240921938 0.8179175839963697 2.1241041385107104 0.3912296152579643 -0.30685595474893723 1.1101799295854644 1.467934330362894 1.4668129636688891 1.5387050027060487 -0.3990114927444017 -0.06864513833654916 -1.4931215827228044 0.5250149146633185 0.44507876081060305 0.630108385348426 0.7267004357292146 1.3777363793238053 0.15717585668263595 -0.5369324585363093 -1.5518474137524552 -3.1564295950083467 -0.24366228436560072 -1.490913926913925 -1.136022896921299 1.4386213634982754 0.15858049972970772 2.177844133239678 -0.8923650218581411 -0.3156142649928183 -1.127754319416013 -0.21120673458891265 -1.424760759807481 -0.6535208477526651 -1.2646166452313885 -0.9878504199951761 -1.8401148571060868 -2.3796523306156185 -0.3198826006443446 -1.7955950276249468 -0.2044148499940855 0.023593820614093042 -0.9447519883283192 0.3445767264577667 -1.316865259495795 -0.18559983381418096 -0.8105559405831186 -0.5484664054461498 -1.058558143522146 -0.6522602780342028 -0.3435376142505007 -0.48669425417261936 -0.0808612751589589 -1.8548276137431554 -0.7843115087193674 -1.3869069356850494 -1.5281388031381777 -0.5664959322497167 -0.4213290420385978 -0.47206188787476877 -0.09883233088585243 -0.9467885733183695 -1.5167746903155597 -1.588265824473385 -0.5996926367417084 -0.8313209140627715 -0.1799255810689916 -0.32057447150455926 -0.7923623358154664 0.4308455741424497 1.5286366550938384 -0.004301281797676546 -1.0768385562630252 -1.3472543955440475 -0.5183635478006171 -0.6719389104699408 -0.09315464390770001 -0.5591683740108493 -0.014595410914354505 -1.6240227294260103 -1.5802743194379103 0.4225155322736047 -0.17419943565711354 -1.1946409685185868 -0.8237633778913107 0.37792653896309936 -0.24448290539613135 -2.052413281045279 -1.078935919355553 -1.62591157841059 1.0616365592552266 -0.22499335132985188 -0.6621207926326005 -0.5084224794371609 0.008200104998237721 -0.31687439241089055 0.4857482196808116 -1.6264280578766648 -0.731513630679216 -0.6376890801699603 -0.08132585036738803 0.3825763389880176 -0.5116469042261103 -0.126832642631923 -0.8843972885700965 0.21559739022691018 0.5866893847358461 0.7644093722999593 1.1893255912070795 -0.4948716029991074 -0.6236901350313668 -1.6343990980868945 0.32984867435586745 0.1929370941173502 0.05205711782939059 0.8203383938475334 -0.7839031028995536 -0.9655715121571133 -0.8172286747112001 -1.3470585367267276 -2.326580267099768 -0.32692890621476023 -0.6167847894373084 0.8701439390013725 0.5579330275664582 4.862084040111965 -2.4923244390321844 0.899553559067499 -0.6129710518892538 -0.8553713677995505 -0.6700683213231514 -0.14784412685334877 -1.2111258004018348 -2.375923978107819 -1.0944000303407935 -0.9261073820539023 1.1794820918666713 -1.4261575995024882 -0.19175117679285536 -1.0797076372323773 -0.8952662625306208 2.534663114591394 -3.4226956283222147 1.267300427582246 -1.2159975046532128 -0.30275788918663404 -0.8788021976481225 -1.0324987656852171 -0.391936479004578 -1.1589758999559072 -0.19142058980347412 -0.7379094778994328 -0.7437850877711988 -1.2460334075867086 -0.6897628222767396 -0.5075988637752212 0.0832684588719276 0.37974842560909533 -0.07414723736729285 -0.16401501085765938 -0.9166233134103005 -1.2957175903805136 1.0826840689845132 -0.15237389855150707 0.5834318991932397 0.5028687886803094 -0.014359152143426307 2.3138343466974916 1.4599163619240205 0.711942340089206 -1.0702378233382153 -0.00327998212485181 -1.3258111023078862 -0.9705473876374493 -0.0396473045327437 -1.5323015805384428 0.8150752700305293 -0.8268356576248065 -1.786276280241329 0.6930046943215987 0.2095762895364964 -1.7563981671784155 -0.6796459378727409 1.586827734493827 -0.0891045806621176 -0.8370781436469787 -0.8744402231049975 -0.4589528972739811 -0.06217749663519789 0.001917045749207827 -0.14835995289597653 -0.5411199282707045 0.47050052708844936 0.4054145630044323 0.5032363843265373 -2.347635910830195 -1.9594812276225795 -1.3080323527294615 -0.021232572578049676 0.7759432142716927 -0.1845492100753147 0.05651784621380932 -1.8807574200866934 2.821140688205222 1.2884480389166004 0.9756911052952739 3.491865387554774 -0.6592619176027854 -0.5550635104691753 -1.1621817860201897 0.5783211971956007 0.384515036411262 0.42764604531201694 0.7477521666579979 -0.2149054174084588 -0.2354613710705404 -2.071204855862362 -1.704989675443838 -1.635534312928748 -0.21573624243357067 1.7491978523558256 2.4806110348975023 3.9485986131829653 -2.5014852342804823 0.488508107505661 -0.29430133704219547 0.25383968667514384 -2.0395871517081092 0.16245391527735992 -0.8266643029205518 -1.2274328741608407 -2.348356513240571 -1.0849073296851308 1.147608005725375 -1.4553087721120779 -0.1450156050018015 0.24533817717053205 -1.1463923947337151 1.7574377226985667 -2.3583552098312808 0.9362827840275265 1.4733072201425739 0.3817844680162897 -0.8736030601334629 -0.14257546130397677 -0.5533709948816024 -0.25065277658379354 0.01987152062380153 -0.35037974060978133 0.05789991701425973 -0.47803112052472585 -0.39630321406358043 -0.14294465220258418 0.2290582771782239 2.864379914057857 1.623058694257161 0.2508472258017725 -1.0976495520118195 -2.3472659803760454 0.2782729067815761 -0.2573336584692908 0.3214251461632597 0.32375329519440355 0.14702903349383703 2.187708155252698 3.207806788130378 1.9053500675018527 1.4605339912428756 -0.4698039107972194 -0.37059480523509 0.007737624197408653 -0.3066361413930734 -0.6580383726594085 1.5467501052915775 -1.3614406066447147 -2.234762375431192 1.3270727326366507 1.0946423265315024 -0.9726213353915316 -0.10871548446344383 2.347655801569077 0.5010014042491634 -1.1935323724271918 -0.11324057851664703 -0.7887896159175477 1.305025041312809 -0.23384707525537685 0.010004854242496843 -0.40068347317888503 1.0938142373386175 1.22025974745128 0.5403690376675783 -3.0766251842305694 -0.8939927954921201 -1.0615274932330805 0.6042212385238055 0.704048069796249 0.9959489715463459 0.2501835797303423 -1.5136513720825482 1.5794174213324474 1.2195620715637516 3.514333598197944 1.625297338383588 -0.6161404112592397 -0.2804027928086504 -2.0078723889716326 0.5156113842078811 0.3422727276359341 0.8154503739401913 1.1045692434418029 0.5997668964128473 -0.09120856581933766 -1.801745434228285 -3.398832294520872 -1.329219171149847 0.9737283248064742 3.9179842491293613 2.0726858011276916 -0.6717360897123786 0.36691070945989485 -0.4763336829448236 0.3048582487444252 -1.0035865121824097 0.055647791613596086 2.6293553648193684 -0.25649924146096437 -0.977127070807207 -0.8376581662972882 0.5774450395035531 -2.9746088975985305 0.022626283011706962 0.20596429510269146 0.11837225262869988 1.1003243649875423 -1.18804899921638 0.478891014076163 0.8718406291536978 0.14138103369089608 -1.081897639960926 0.9896456864009148 0.40128061537499077 -0.3213781702169244 0.7404570722548245 -0.40593309691811064 1.2761719458630687 -0.3792257241343358 -0.7489391492906071 0.2888586968059146 0.4345295873340951 0.6214448171658232 2.2017914371300464 0.472963323019447 -1.9200676595111146 -2.8023854754111652 0.5294999196490452 0.7388051254292057 0.24558789774056558 0.9030377390323565 2.07220306714002 1.8118644622766962 2.7780733638412056 3.2604089576847075 0.4749897855671088 0.3985885151727226 0.261596631434506 1.3563126318185188 -0.7512192272779343 -0.3149184397004719 0.6047470135872404 -1.453955015831861 -0.8010513145842526 2.7372463902021145 0.8222928067769668 -0.5016541362417898 -0.14817355638073879 3.2896432303314485 1.5996248811802074 -1.6942574600792577 -0.10391098931705307 -1.197012282077824 0.5073189855792178 0.8079484113848725 2.0090094766595357 0.11239796345889598 2.788701000513187 2.8098956494951306 0.5835028652692554 -1.3885317671538988 -1.260865078983401 -0.08160710449737534 -1.219249473925091 0.6142044145868188 1.4041636157616846 1.4255137375954796 -0.35698796402218236 1.2837427048518144 0.9908256200755641 2.513176280739949 1.261696560844832 -0.050070559784927894 -0.09285528983905672 -1.4976944394457516 0.4711502906427459 0.5040935549500345 0.5481917301530137 0.6114052012346025 1.4215831720946521 0.012998890237816089 -0.5164364881170632 -2.5404589391436976 -1.1778066276156045 -0.7940105451354365 2.095550371443906 -1.0312422193712203 -1.3559193173975619 -1.154983458332314 -0.8519461884138403 -1.1750325649821847 -0.6637444421557182 -0.9915107627969468 -1.1950851963331206 -2.1881336554484445 -3.413659173868294 -0.5315164578438749 -1.3863117531554898 -0.6276766239245591 -0.9431996609964971 -1.0270220307600506 -0.8438101534268111 -1.4706750340903567 -0.6655159198679789 -1.8641194110878287 -3.6068490841958067 -0.9101592112859543 -1.0860197272395267 -0.874513177980408 -1.1167809467067749 -2.4647730365079124 -2.7337028845025424 -0.9570125478473782 -1.3090519053005305 -1.4101426857107697 -0.7672400506262975 -0.8456029191816439 -0.5523195107856715 -1.5222281898113705 -0.6948108302411214 -1.4952910691839438 -1.7088440989983908 -0.5750638620820331 -0.5523513688739161 -0.15429894269548655 -0.6059235281118547 -0.6645378631607199 -0.8077289268212486 0.7887765835119025 -0.08463244137261873 -1.9013175308260832 -2.0598718608658886 -1.163109906532157 -1.0623045565332543 -0.30047369920249895 -1.24195686175777 -1.3572022858314956 -2.6215904225536493 -1.9762577266840065 0.1331245441793343 -1.5468443771089153 -1.5578989037310782 -1.7370557233689905 0.9415011406160012 -0.9126742436947382 -1.762173774249245 -1.440618816538903 -1.2606775041306535 -3.039018970763605 -0.4823516378946997 -2.2237731560698033 -1.2967737447986771 0.34146202311111606 -0.16363444462268345 0.2832234372740094 -2.126055146775924 -1.6270184512519692 -1.2583364170483318 -0.6753930542809057 -0.14470210842855524 -0.8665307694029718 -0.3475134414993417 -1.92204259378961 -0.935704080602437 -0.20400984077147155 -0.3985219467212371 1.224824388001212 -1.217769876922996 -1.2428427273779885 -2.3151628453402915 0.048618359398732824 0.27104247285219607 -0.3464430687199756 0.23290121027663407 -1.2953642323949963 -1.575633335565252 -1.201207322276431 -1.7575592956240123 -2.768653613402182 1.5171512060863266 -1.1282855961749645 -0.7946878456838883 -1.0867928278922454 -0.1044779373037524 -1.6070036718467744 -0.42812292937903185 -1.3798447730243868 -1.22946251917918 -1.6434780517596197 -2.1920757227331427 -0.22755581552911863 -2.409816613240645 -0.6302290106697812 -2.072988446555982 -1.963680790123135 0.6955341163950304 -2.254783560290789 -0.08147298873985298 -1.1245067436650353 -0.4553688818371803 -2.523316119165386 -1.6488580021637849 -1.003297844627779 -1.6891760508378781 -0.2335244491711951 -2.0973320534668054 -1.1574931821954648 -2.0765121105459072 -1.5083145451931717 -1.812764662552319 -0.45288290504529716 -0.7369751606990266 1.2485183453971875 -0.8214520934497156 -2.921630284782029 -3.530818077169181 -0.32808889037933586 -1.4948713966674314 -0.6693089798767836 -0.5776083610836502 -0.558537865951254 2.039960787902961 0.9064593398501178 2.006066263612202 -1.3187258666912676 -1.841476795067167 -1.5072279115118103 -1.09240457130549 -1.447982323102881 -1.8122442241142487 -1.548991175004847 -3.027504683497824 -1.6395014868065545 0.48124722643477086 -0.7966290684183422 -1.7705124200921107 -1.5264214857424376 2.8559488598677953 -0.6711704842717993 -1.5167924738777046 -1.5407039481368414 -1.9452983211561752 -0.18368112266424697 -0.27743902165909146 0.05424480596854193 -1.127140363937581 0.5847357915680715 0.12933605075171092 -0.26546456519058115 -2.572350750602024 -2.198255178541474 -1.1727725068321477 -1.6416870427065824 3.297829061701537 -0.06298035204479367 -0.23362313808072074 -2.5839296580818227 1.8306465251096427 3.2566777810693197 -1.0048112088808434 1.0334638104422564 -0.7533419902244289 -0.6360807600786706 -2.274838860187486 0.05984570188207167 -0.7686986389630595 -1.3067845719714808 0.25666540875677846 -1.2640474508756134 -0.8200943958529244 -1.4594377014998752 -2.610085121864117 -2.9568149803535384 -2.309195886733336 -2.2012628496025046 -2.667339816648484 -2.59059896967014 -1.7084961215238457 -1.3490460731170602 -2.737420250597984 -2.2303037936551826 -2.2602981599520615 -3.082396223888023 -2.2172031589138084 -2.0821287688577508 -1.4582352805065464 -2.090756201573276 -1.5898402669887772 -0.7753382918311912 -3.0113983781234994 -2.2910139151436684 -4.101044065937411 -2.394465779612675 -2.3028427801397684 -2.5310696735417375 -1.3369851324511042 -2.459686841517793 -2.318863459987786 -1.9884358876670951 -4.469739431192683 -2.3423993764681983 -2.841472495199944 -1.7692652378162508 -1.5695277150744822 -1.5108447505537044 -3.7717684994868073 -2.001948531215464 -2.358965120030706 -2.4302017665213556 -2.515945168366158 -1.729363866945949 -0.029229958788469394 -1.9009065194667585 -1.124729280988362 -0.5924822909197781 -3.0067537949906415 -0.26822993802977907 -4.103132563208947 -2.28424310083025 -3.02725801033793 -2.3606243474290056 -0.43309596181006293 -2.4350296225540276 -3.1370685343672604 -1.9897473430992214 -2.1314029506335954 -1.8025860545349528 -2.8947031029065946 -1.6938400458932397 -2.275436470570412 -1.278989604291605 -2.9885841888754774 -2.220124857484386 -2.862497283112237 -1.1795520879895456 -2.51419521244892 -2.3859276585573577 -3.5860327403462358 -2.3409000054734785 -1.5851208212797356 -2.852531886520502 0.2623160442981637 -2.0563630716296473 -2.579215890835969 -1.9220191243245914 -1.6731002078785784 -1.619181090217226 -4.131414464304228 -1.170647665697268 -2.833256191983813 -1.5578445233010854 -0.8733883710340621 -0.5789316577217413 -0.08449077905356152 -1.4104771791777277 -1.0157257750123863 -2.3832063817691123 -0.01017629498616955 0.16080936178826205 -1.2185593672236346 -0.3042197942881756 -4.09760592062657 -1.079848404759945 -2.005383372304517 -2.925183621734709 -1.9750963322491644 2.963239094404808 0.255637097379178 1.9913125193682812 0.49389913802685964 1.299055544998855 0.22069869140028192 -0.5635332149691353 0.09643126499103287 0.4646766620146279 2.1799628396729145 -0.18733629842140487 -0.3663101556732078 0.7447623653591994 0.0204978589096479 3.4415096115076977 -0.7980639355954459 4.089872312001502 0.7110677753111839 0.7538255842095916 0.031917060787002724 0.5574764832847136 -0.18560155583080393 0.7772806445336791 0.5844992672129019 0.41780715237693694 0.626661769392268 0.16622416049631922 0.41108754522155877 -0.7177254556457471 0.3576172651737809 1.673096030822167 0.9387855473883411 0.5545451385118739 0.7498023397938685 0.1430867771848741 1.15638074318179 0.4874250863358366 0.8292177454458919 0.5923727299385125 0.6914330167100997 2.7435830640242416 1.5038347174545965 0.9314844449312312 0.6968188562639842 1.143267559134542 -0.15887982074574178 1.0625303686873644 0.7313167192580352 0.015500879710833767 1.1896651473285456 0.17134398515637544 -0.2737505572446031 1.0542824880076793 0.9158123233806604 -0.7116996094365092 1.1697470363113616 1.7880966687457935 0.85954759709799 0.4563158341402023 0.34550792483467196 0.1565284348356546 0.9134373986720851 0.5056974212602553 0.8239184070753349 0.6032297276360932 1.0269134977528358 0.9878719621176465 0.6387371791065661 -1.4161108492956573 0.48610545922936305 0.07672751784929073 -0.02504090570017546 1.9452291221818534 0.9669326806215557 0.01492100575987613 -0.5729384622337064 3.18410831097546 2.3502426867422037 1.9741433803525616 2.2049023532588743 -0.2021889849904859 -0.13531007570882503 -0.0226827544199597 0.663681143942651 0.9255922007153691 0.9469835616264806 1.001698753622751 0.8658027432187207 0.4455163955282158 -0.26916267265479993 -0.32948083444380866 -0.17279692815072592 -0.26008949044801233 -0.03220387604851937 -1.5935166713860285 -0.7966506909318383 -0.6046966286945233 -3.605449342565107 -1.5957816861140997 -1.540172679818907 -1.1274961065483526 -1.0172108007032268 -1.3532392623185883 -2.3887440008891856 -0.8493878129398112 0.9738968937562613 -2.0379056875199146 1.2162932448579802 -0.49014821882430737 -0.09168956471391637 -1.3533886126251922 -1.6924005195080536 -1.111264066604392 -1.5764920681908927 0.3074680244557582 -0.7229755241163139 -0.9613871192929242 -1.1940539945020165 -0.5472654762880641 -0.9875506568187555 0.02077773369913896 0.11297179985230976 0.31671029516246146 -0.25149100254509005 -1.413801887920599 -2.6398331979956207 -0.24842957018225165 -0.07861974382607885 0.23235183433829784 -0.5578332980445408 -0.45058503052617715 1.7607413460516192 1.4835612355938765 0.33751444542682174 -0.7535914653105725 -0.7124208200136298 -1.326728835096818 -1.7849380835490418 -0.15622321566324354 -2.106265222194623 1.129419220007391 -0.8864358089501111 -1.7599605367108795 0.7393163132739028 0.3425176810821765 -2.3238160526317952 -0.9678375270529054 1.457184559852431 -0.01550647228658542 -1.113969119210926 -0.678567757965892 -0.7192948706665593 0.6020300406242373 -0.24180770791962644 -0.28828442588411557 -0.8835083906340174 0.6273024261020156 0.6929406649962134 0.21696112712729732 -2.7588510110617936 -2.2882344435490243 -1.6862046562216104 -0.7838433452971628 0.6169805083886116 0.0769823624993115 -0.8490531291121214 -2.207532612169592 0.7363323834022864 0.9898975005100531 0.36726894049056374 2.4115831983720466 -0.7843564697770855 -0.7407810711769229 -1.4958914255778744 0.10029112980881401 0.24329224649710554 -0.4442185540771367 0.3890176527655013 -0.1626135194071595 -0.5370752103981491 -2.6454847391720424 -1.8955871135582487 -1.8352925817879482 0.17858971734388474 -0.4664982199069783 0.09385767364302179 1.9758709865080333 -0.18462768454714124 -1.1739963535429443 -0.703932378331303 0.41073794076761916 -1.6573503639949685 0.16896416337103673 0.25408053167117034 -0.0960869222374452 0.5102028903816505 -0.9517995082859868 0.34816491644392256 -0.03612082974439139 0.07545689310413284 -0.22763558173739487 0.42190761359822243 0.24774318265098227 -0.050102693957045696 0.7927256163213224 -0.3719328192963329 1.0240572289099037 -0.12401918731078357 1.1530948924667876 0.031716920540810614 0.6340242183895131 0.6434108555950129 1.3694152983867156 0.422696965788185 -0.7702103020830341 -1.1095140487673256 0.08812738921889544 0.33006148591037815 0.19991979430931425 0.47199269620553336 0.4058572277270073 0.8285928673998066 3.370546833370642 0.8343363807340813 0.09630630608934106 0.07584781289722095 -0.031100007345486572 0.46793819073257975 0.12027753535627114 -0.3931024149353523 0.4682579809408579 -0.724552441198413 -0.8016159730877157 3.5427795884009368 1.300930779363765 -0.4216660869797661 0.12426351428433491 2.7188615501474014 0.9777220429583954 -0.898284992531245 1.7091540305130646 -0.9183687093455486 0.3753625102537154 1.8016019077157994 1.1925975636586694 -0.04608861991888773 2.943962494116359 2.0072463972364023 0.43838324576666626 -1.1031616440121954 -0.7342581360820949 -0.30589579668128564 0.37006367438597426 0.6057056675145631 3.021699323837612 0.3286351254496983 -0.2179997618114499 0.5984569570736447 1.3765609867427164 0.8895826528270773 1.2805311855851718 -0.2573214666094006 -0.22911932112789068 -0.8328435307205906 0.2517750162792686 0.37160382028318956 0.7798417954135586 0.49520248125760186 1.4766614594576122 -0.15029649748931276 -0.3560028670731104 -1.6019791122553841 -0.7658639521770197 -1.04996599369329 -0.6285498249624615 -0.43642930377007594 -2.840856354473438 -0.721965276353013 -0.28104730118508947 0.10853536399576494 -0.6580623793637276 -0.32858413373901696 -0.687685382598897 -0.5362734770435758 1.9922848758714389 -1.494070583774443 1.0558169792408556 -0.13876266826506345 0.3207573003881529 -0.7800232652358317 -1.1458048198176531 -0.30134648867946384 -0.7912409840795613 0.39272133223448435 -0.3734086919563205 -0.4249729953256691 -1.0872055310358544 -0.3357044354160181 -0.7821685929721213 0.03560623457159565 0.05009827147303015 0.3797939580724683 -0.43874958183202306 -0.5181659358476353 -0.8666688606045323 0.22811922077004754 -0.03713663091206958 0.8053874598869482 0.3721599112184403 -0.12933796007184778 1.789625378641664 1.2214219083189832 0.500584650850565 -7.331542381885723E-4 -0.2212674080231774 -0.6365003691908259 -1.131780470418824 0.5529742657001459 -0.9407314975784489 0.7592613683061146 -0.3509659586123126 -1.212196785773311 0.43520157427407585 0.4717062395114569 -1.2385662646253441 -0.5121875756747439 1.2016650137087526 0.08254462997025161 -0.6205952144724864 -0.39560248462114855 -0.08472990269171334 0.37818348328908236 -0.016217734832685876 0.12140746281457472 -0.12373746560596775 0.3628541200623292 0.4889204875634623 0.6110885175022415 -1.4783754868277066 -0.9417281955053636 -0.6631957088921913 -0.6222266827878997 0.7151615022466603 0.016845999284808236 -0.29920619589399866 -0.48745233450816366 1.049322321419143 1.0926262885308904 0.5979183030278569 2.4704274434765043 -0.20792364395897217 -0.3864346948162931 -0.5681993492515816 0.44958748435638574 0.5722534603459815 0.026360437905968658 0.8304474944588691 0.05146054210679557 -0.06725963662845223 -1.443444407214902 -0.7192219315731377 -0.5695001361656271 6.300428743820817 0.8125429201248089 0.29321225469739814 1.104745301356536 1.1059629482388653 2.3843186173935944 -0.1202941482975131 -0.01565421878142518 0.8252984830378423 0.7032846154296883 3.486702414374767 -0.9227800315251388 1.630645576707555 0.8355891018238553 1.2202991328667205 0.35445650889005814 0.9931314830339709 0.030269336047206448 0.44371755522809736 1.6813770750948454 0.7333482503331341 0.7540055024850741 0.8124469511382169 0.70527928842701 0.611429233240225 0.8914357580422109 3.354062664051894 1.1499055510504845 0.7298892030279239 0.793128527662209 -0.24279575942956447 2.1157498059195783 0.6594465916107733 0.32804623282824535 1.2049694110817364 1.1866858355305816 3.5344208660309033 1.5607166478138206 1.7933042159618615 0.757787818374239 2.3699636814663387 0.4380651643728032 1.3566957995392706 0.1736388166636996 0.0719809722559554 1.4397488047168143 0.019179540905640967 0.9751948858992963 1.1629417319591555 1.1000213305968205 -0.01887381840100876 1.052349110348261 1.7219228261749089 0.9476546497421294 0.45364888012498283 0.6628549786165147 0.26375279751240077 0.7871394712306564 1.1906677008957856 1.3833332263528253 -0.03746758232470593 1.1826587237564459 1.3273619522947206 0.578369272335546 -0.6958550399398925 -0.14208964329176388 0.08362616977724946 0.2847140997173046 0.8996048198085344 0.9163055407338496 0.40338166383680746 0.44633341580316216 1.827722030070128 1.1099447064255554 1.2327820345085543 1.2728956931242037 -0.06331669806902729 0.5454555236537452 0.12605362110922727 0.5029656774183323 0.3969663120386227 0.47228078438880833 0.639030486017458 0.8492926884389075 0.9138397589614762 0.02848537030507251 -0.3787266886025454 0.11653194615733904 -0.3439219542219212 -1.10073764275624 -2.5056810831291743 -0.6185877035559187 1.5384802585390318 -0.6758860040129117 -0.6542335397017744 -0.19114887352108498 -0.7181961557256131 2.9725307822839757 -1.3539093150596984 1.1273880902050368 -0.03349526688061312 0.07225757178605098 -0.5176260707898372 -0.18719405344386666 -0.7911706488495434 -0.36757194853987185 -0.5537303471139701 -0.5737979184779702 -0.0774035954748747 -0.05012770974983096 -0.41386285129189115 0.4275755362514445 0.19883695616926267 1.6000305550400482 0.5756964985290806 -0.0370691448247722 -0.9450911413756087 -1.5498580966336373 0.14854947787023529 0.12864381055415924 0.13966694521621534 0.5228623280079061 -0.24188050991992968 3.1012748180696112 1.18803682741001 0.8803664568165799 -0.14197823784671684 0.3332375126285884 0.07603431832183224 -0.004329958360603345 0.07018086665300623 -0.34690356633778613 0.8609233534039108 -0.9905043234348737 -1.8070628326771476 0.9002821427970809 0.6327655242292045 -1.0045686109746808 -0.09548464078555544 1.493449207521406 0.30469002437483045 -0.9178155739010855 -0.401650641378305 -0.393092262794653 0.1883863623114489 -0.5884150573117326 -0.5046821407184359 -0.6045019084822322 0.8357400733608712 0.7875356829846819 0.5131968678595696 -3.109347977287159 -1.051550366657885 -0.7996148254100636 -0.055118849139661114 0.6878171653158821 0.26317520756893814 0.13254639126796827 -0.33497744853695716 1.1483121096949085 0.8766000876053128 0.8211952617832298 1.1140012185212111 -0.2508758757974296 -0.30351855495418606 -1.1705479825045468 0.33340960463531694 0.4270112715198037 0.15236439659133325 0.37248859651681154 0.09758834599167918 0.052107692849370245 -1.7241555526119228 -1.4887779901510014 -1.0290290586252202 0.3597277612074475 -1.2192477030565445 -0.45874730144041587 0.9375882689730382 -3.447674210028482 0.5479062689222958 0.2692133664198456 -1.3897959095294028 1.1623095172456175 -1.7922537560107898 0.7434885875099565 0.11516168469328183 0.19147010603093603 -1.044105470959517 0.8730899777028309 0.5811422182315377 -0.2444998320687178 0.29974923793793384 -0.5192241968778799 2.1678000577108647 0.519063220377715 -1.6406593769153062 0.2287606479352623 0.2793848053886255 1.506814085107376 0.5235980115320392 1.2934993568779969 0.04915665904870706 -0.9361846076842336 1.6825650477744283 -0.41897152288216294 0.4844679385629204 1.3054142776844264 0.08141006278656376 1.736067310782594 2.2184878462734394 2.238644787895724 0.013435997944409214 0.7430220366244432 0.12887431616646902 1.1330065736981627 0.11643137031504198 0.12382199067798141 0.7089353764165129 -0.546921641999244 -0.51440672755632 1.2223317713220032 0.7657138110239485 -0.41075491740291953 0.2950300362344472 1.9227652459164815 0.5275048801249493 -0.38058818814523027 -1.021209905217332 -0.8695674963463419 0.42554160265052143 -0.007065249367960787 0.8027223751187023 0.5625371724700241 1.3720540546109994 1.0497330999586136 0.6863945748270752 -1.4824816777843008 -0.6122767236211868 0.2491970774353093 -0.4381859021245056 0.5349392283843533 0.9607082365606316 0.695175724817608 -0.33640440563781904 1.3482150999347577 0.9428172184757111 0.6968044392303309 1.1697095087509568 0.23442065136555545 -0.10141539872691512 -1.1665369632056584 0.7414107679954847 0.6139809349396332 0.24167475452675546 0.8284627098444286 0.5977111270370106 0.04376271780985612 -0.282992989966278 -1.615340374891701 -0.6070086273760381 -0.2838687389478695 0.28000428577346886 2.8833798028803335 -0.28161517459384044 -0.08921804472090444 0.8209345551996229 -0.24564550897997656 4.323172530358401 -1.5744909333558652 4.141243323085868 0.4542370174311255 0.8926048232252017 0.06657219477936561 0.4010863790524141 -0.2650250100592209 0.5187718767979069 0.8037580752229369 0.13101468988599488 0.5997037413490396 0.8816816464829011 0.17749834238933138 0.4528387766563235 0.44818842930584446 1.1461854532202442 0.9229532050645907 0.7191381973063405 0.49230449642476026 -0.22010802847145372 1.6163169725574527 0.44307658842989306 0.7181879507071012 1.8675106671684143 0.6025062893653658 3.4791888154918023 1.4625566230145663 1.0660882393795368 0.4654290820253058 1.1727278075864278 0.5996755810324904 1.1373433526181906 0.3645401260419264 0.10485362284927836 1.9071811768617364 -0.010440339212824225 -0.005071264102982674 0.8035259087614853 0.9988517067532783 -0.7241932867209224 1.3615864021514488 1.6316688089800269 0.7032411852968039 0.11532809181060641 0.23220454715471286 0.2726911324462636 0.8368662809100323 0.27339065918226435 0.408076031655013 0.1728977229176308 0.9275799099599145 1.0293089642054936 0.639644038756606 -1.409456498629116 0.19400755453280882 -0.4530981726253784 0.3833942857340794 1.137868068348022 0.6415242229550636 0.3358897162510091 0.9667371396432144 3.545155021222213 1.3303010737040823 1.1650238020398205 2.1043693887846664 -0.1943790439387605 0.18002216323955814 -0.3621200156747767 0.6468860249406733 0.7100294269748821 0.7632528638963788 0.7112343850037958 0.547785910408909 0.5950931991638162 -0.944160640020755 -0.340902122726685 -0.47357641893049596 2.7902597389880084 1.4521678200638766 0.40553556944591673 0.25961735458124535 0.9550671027879856 0.19878001834522271 1.624659999221954 -0.503597157795183 1.098695713603942 1.0339182644516647 2.4057207413141852 0.2154001875944942 0.7110638214036038 0.10741599164967316 0.7504118779375644 2.1845780919823574 1.2424522530692865 0.7789507746932499 0.5303976372686299 1.0442444944134226 0.34934358290927775 1.263273453010636 2.4892266009957305 1.7040136868575815 0.9649914353027578 1.2106466528082225 0.16787509991408392 0.9323154794809866 1.154271734979884 0.5616684895707222 0.5791214004033749 0.6602727204986488 2.3427416697796053 2.396038290939174 1.352437638068089 0.9509415745760812 2.3501035509647665 0.3000064539359806 0.8423462488993418 0.37771456054712993 0.16447124040487243 2.7147918284396106 1.34371312002425 0.5352352311014948 2.0452952904963255 2.1230951202545763 0.07438474525136086 1.3426368530285144 2.3590782780160797 1.531131446613421 1.5469067125607177 0.9875792095135558 0.03896869909721197 1.3267331620093157 1.443883316667312 1.888534544195924 0.4506320021967287 2.1247733485637332 2.3439596781398864 0.8069870925058436 -0.9204035177566477 0.4367338110927328 0.2226375516377096 0.6828279486134676 0.9541290775914835 1.7058184463291328 0.3470346309229199 0.688284355748949 1.334916201670409 1.1866286429620505 1.081308725876621 1.6908199409989235 -0.03421206686459583 0.5631491375386517 0.11284639771747425 0.602795864554042 0.6766291660528224 0.6026259795635142 0.7594405257933743 1.4780787422079815 1.0124532862658657 0.09981881319492572 0.33630402277692384 -0.4432237574379 0.770816867913505 -0.4539096423275314 0.30596437137842764 1.1238408026172957 -0.10780461011041206 1.6333787817887706 -0.8176582204087119 0.6236176362818777 0.8529019208695438 2.6053188145128905 -0.16823287077214455 0.32632450095100685 0.15736116022294733 0.8761154638420536 1.8100093553507766 0.8584180872659761 0.3698353252240888 -0.2228863029292206 0.16146740366929457 0.09338874463190212 0.6483784622919881 2.3522890927112163 3.014137852621149 0.5087036894591298 -0.035249488472912954 -3.1010484703853702 0.16825823212752214 0.7842666462046701 0.380513348685417 0.22210383454542515 0.2519583003112356 2.0612690671593645 3.4258430564568556 1.1144904200114811 0.8297693348751167 0.4141352781510371 0.05844610654772743 0.3079891027407746 0.2542534376954736 0.20146605185953959 3.7859401384345976 1.2910684445669847 -1.7015993047510083 2.676388450052835 2.7689822798573416 -0.03198125776420519 0.8910228958978327 3.198359700191734 3.1852408763933973 -0.45366614577934483 0.3741851308019453 -0.3512396759157133 2.142041617966162 1.4057204359572097 2.7885625092874795 0.3204462481156516 2.522688361204075 3.36321694346721 0.7492445140639845 -1.1743745085870037 0.8065016421234178 0.07714412244555086 0.3542623572156256 0.9973005668233232 2.1082614537555995 0.32581940779194934 0.1993738401418496 1.3352352083760746 1.3796785371870126 0.7009699891778876 1.8467120488885316 -0.04378928044959862 0.49386693827769956 -1.020602247377295 0.5717652144974585 0.45069456682303166 0.6048317056108059 1.0613368191535708 2.400986587961621 0.2849234643615286 -0.05544875451590668 -0.4527137313745446 -0.29053858785653225 -1.1229569026451407 -1.0230188145362502 -1.2939808835360243 -0.9555885785297725 2.0444214602803985 -2.265687084939906 1.1914543686008463 -0.7448647799350623 -0.1674094150079822 -1.3830590233055517 -1.5466940647023422 -0.7543631450444858 -1.548540111777436 0.0018497048250322862 -0.5935960492471255 -0.9418276447087344 -1.240964559509834 -0.6716972862607042 -0.7992970210291223 0.14112316069650874 -0.05530832207319439 0.1404674823393463 -0.9809621620953163 -1.3958034891948716 -1.738890524305455 -1.3383569913687023 -0.37131144376925784 -0.046168844257274834 -0.30439143542827346 -0.36583918195790727 2.18733403253439 1.4160712200292556 0.7920829446878191 -0.66679435445446 -0.6483986432149615 -1.0886972207540069 -1.606261319563388 -0.11455145566381766 -1.6797121956807732 0.6097537802653248 -0.577365601335862 -1.493996003950886 0.3104412621178337 0.4286226585734708 -1.4456202464521581 -0.3493114449486081 1.2291155998101484 -0.11950802375556227 -1.5926902148165976 -0.7732586519523148 -0.5073218543722928 0.015293090368681603 -0.3625646848596367 -0.2508191534626083 -0.8326066351813738 0.37419482927291925 0.4852454838361402 0.23520889023946365 -1.96335761971161 -1.8305169042056404 -1.1672912593010862 -0.7272358477681404 0.6883483994610526 -0.3574792088815267 -0.7332066349443483 -1.2367325773235003 1.5208833663407144 0.9037563262926508 0.2574664719873435 2.180461343754396 -0.5722838248442992 -0.44818632150319504 -1.3719837834758752 0.1868348603700634 0.18292987446220055 -0.15723949112305804 0.1883918566066411 -0.2908832306185807 -0.20892758834975275 -2.084613935865423 -1.8748945687766732 -1.4181719269465864 0.4900586884132908 0.9766393179440073 0.4194470752002406 1.0887536448271076 -0.4533081552029597 0.9199173802811049 1.5208527068873114 0.6333342890275865 0.5251526031737286 1.1149983044689828 0.765544279459525 0.6183172170231424 0.9778093901233663 0.5366127287320904 1.6152703969321722 1.5014396855881722 2.02350085427372 0.48461160351416827 1.0328101976518431 1.731253313091758 2.512351241680812 4.160959108463882 -0.43170865075840625 -0.6878988236873559 1.6494731718328568 6.3191372370782615 0.7244204193970153 1.235501931492947 1.6211651390934412 1.5056520926697956 3.000456352654904 2.7953196021528544 1.3175393672388225 1.7912040657659025 0.3329166362014557 1.3316661947870139 0.07559204721116711 0.14857464729665817 2.2251590243233297 0.20559209909227566 0.09318878932593588 4.673793432778201 2.2812800223542697 0.07423527623844269 0.9460201703040989 3.453717919143756 2.3503225198357565 -1.1151256241047054 2.1038726850949794 -0.5963911581885287 1.060272802341408 3.0177176481881722 2.7429240205093963 0.6334683032328986 4.457698412013006 4.191176743147565 0.6986762739825816 -0.35830914088716403 0.26560896576415144 0.22084955071738066 0.4523275932643251 0.7851356757616003 2.719879822355577 0.7921236231631443 0.5881246230865208 1.4027696129996183 1.0357779792841424 0.7688752690426525 1.6567242835167002 0.08201729682337495 0.260877167852179 -0.36183805961968096 0.5711632647718988 0.4900198434092784 0.9768689545397865 0.6661381575255179 2.0969997126341786 0.7015742856910244 0.12325843401602617 -0.7730276002351888 -0.45306549441170424 -0.9249392847106644 -0.47951559495552415 1.7000035499015282 -1.3636529591647701 1.688546703500387 0.00724444349881071 0.2326043282908687 0.5913694440633736 -0.12772906761191735 -2.500871655739678 0.21025641090350908 -0.4182816761264947 -0.3873722548725527 0.3270319643254974 0.4323666534273903 -0.10389900148535988 -0.2116103566062419 0.24109785478061657 0.4357884736287194 0.21750957884798633 0.3243553139925277 0.013348717235129487 -0.228893858180482 0.9212035484224124 -0.10537581412880824 2.1440628179287153 1.5085812237297245 0.022825135871379416 1.4281065484094984 0.8258971916244722 0.6167735139360249 0.023375282236121748 0.43963029345643906 0.16248060481221077 0.2888362679758412 0.31420659587452265 -0.041879473041796456 0.6982733781487331 -0.47703219091997573 -0.47895977150601804 0.5402756405525767 0.3745748367084739 -0.5827817032938859 -0.6180355794860607 0.8986369527217832 0.2197947618652504 -0.17974280265578071 -0.29220549314204786 0.1541879116921038 -0.027513335961313206 0.2857929360708792 0.1536141845116121 -0.5020669780878825 0.4830746702805324 0.42324957012801395 1.61766142989634 -0.9057071391968089 -0.07835361677723547 -1.283102836135134 0.14585418632810337 0.9711567244880204 0.23548835085013364 0.7312378240007051 -0.3171923382086313 0.6784151802263431 1.1242935737546 1.6302924417101043 1.0845021176634664 -1.6830673561012766 -0.5477512208198116 -0.3599615501518743 1.1275180887845377 1.114508568536132 0.5702273082081668 0.6212549127123939 0.2430775825049732 0.4535891803850935 -0.5517191863864228 -0.6360549624144353 -1.0231788926799237 0.1506625370080218 2.954441631479056 -2.2014243265531332 2.136310594795156 -0.10262224361103947 0.33516176477418425 -0.193624230594828 1.570114028771387 0.07591596649271917 -1.2797647692791134 0.31657133130572523 -0.5961500777128531 0.3424163582081721 -0.48147247585486463 -0.2621690732826749 -0.023424806398444378 0.26407448258102245 0.5365458001385177 0.6445136667783451 0.0337141767603562 -0.7040536579917935 -1.7195255461630992 0.9273265902578363 -0.3357176923156 0.8678319160341847 1.2949164360737735 0.752154460298525 2.914710970561289 1.1158340287575976 1.060498626787084 -0.42066382981819234 -0.11035197098736817 0.3678451552330198 0.7766156504996466 0.5643741053197695 -1.484169371760705 0.673764425373219 -0.8021007510512895 -1.099066440778765 0.7345400715919435 0.23436865103172377 -1.4328468300164061 0.14288937109407848 3.112234000593471 0.3485578450514638 -0.5695801309903629 -0.42055197556251694 -0.03303886152599784 0.4473300938938273 0.16110313551212813 0.21682898797301678 0.3431781208742508 0.6092317316977112 0.7309286388224369 1.1301444292086775 -2.4254754529744242 -1.388201197228089 -0.8368323548013201 0.3142102181400411 1.4630633213092623 0.34720018930255564 0.4242548647421236 -1.9466956672521245 5.1018919860453344 1.874470086460516 3.1229535939307973 2.3153569804325635 -0.419924876041825 -0.13888705217399425 -0.756721911293085 0.8042058765481908 0.534369289556668 0.8739258587181469 0.9952066295633872 -0.18571415491842 0.14791061466870944 -1.727489867368598 -1.3220026204788313 -1.1520863280568556 1.2502100514737546 -0.7042290246114777 0.847004850498619 0.9247614822415033 0.5817480597086144 -0.7675127159443559 1.2576861886992574 0.8411531778561747 0.38327440989309164 0.4756066760686471 0.36612419479729114 1.9109460996215473 0.7118629723116259 0.8490071484231261 0.5279869320456338 0.6368458451179602 1.2669119687715669 1.0653625607463566 0.8574186053860589 0.48156323400824297 -4.8858117771837244E-5 1.0829548133827451 0.6734906530467496 0.6526730517262791 1.377813928135894 5.1913098452480115 1.5192489084553906 1.3155697623949958 2.818237610407472 0.879412284624001 0.6199072347483231 0.9272729247190884 2.0715791813723974 0.02935428413193042 0.2058242110601749 0.9359055955138431 -0.7367973026499697 0.1513604060776887 0.8529484692889626 0.7378087592701373 -0.09410684267506621 0.4199168043326698 1.1033410794450809 0.7365483913524851 0.4356797782148882 0.6790798569308508 -0.2254415752927783 0.7495509528764422 0.6237205696448151 0.9072207922630153 0.35147277919199427 1.0671292979628384 0.8438413241693019 1.2100632001879086 -0.4811701725096406 -0.06823037901540965 0.09911488723759095 0.5610789810301866 0.7682850628159359 0.978158902467843 1.4479087650039533 -0.058147658895239755 1.5262222151532325 0.8518903635946046 1.9610263677199256 0.49859863509644325 0.33325271992073313 0.14925552481141494 0.2369439731516526 0.9666496952482037 0.794202162667774 0.8476387727535057 1.0786390496174185 0.6278947675488845 0.6065453814914814 -0.08919269962912195 -0.30226543079530865 -0.003919331165416031 -2.108853729270442 -2.1240170212939 -0.9558290644672806 -1.0092774214389526 -1.919666946795914 -2.3812091606004335 -1.557717153673649 -4.16652978215721 -0.47574640470658824 -1.144032477788035 -1.4260847236424565 -1.8731692112449252 -0.7095226542580629 -1.4300901081411999 -0.14424963009324845 -0.8648499791801475 -0.6512191589843083 -1.3616851915411596 -1.416076687407644 -1.804751562940614 -1.9705364547937136 -0.6555237730091358 -0.3467503140342716 -1.4087053218043373 -0.9117973511554658 0.12567881488241517 0.18683259759646012 0.08764515945221296 -1.0033948683878324 -1.7993777021339046 -1.9239162306704447 -2.78965921587542 -0.32189614015165174 -3.4095699697993727 -0.43844524202085094 -0.9419365238470574 -2.0921778090965324 -0.07561742914064734 -0.5573099138667478 -2.6698153527957627 -2.2521443407116513 1.1006045383905105 -0.7319059618762608 -1.2913212866692378 -0.9314541219136455 -0.8767573218207365 -0.690215806333077 -0.5648869129777809 -0.7664055174884022 -1.6571169193486275 0.107267306702713 -0.24025067879097092 0.04036607414918942 -2.212964978778835 -3.933680001478447 -2.2361376061405953 -1.2968779528845302 -0.0955311343145747 -0.3356575476079653 -1.2887243869765566 -2.8494908710106848 -1.9940685038125778 0.5475448404577722 -0.34161999050692965 1.0114156527591962 -1.012806042751525 -1.190098147097309 -1.3199686944445506 -0.06299636645496237 -0.08484724742590559 -0.8532776937912573 -0.17735654402509424 -0.47758899812669986 -0.8369047896279175 -3.154847294859449 -1.5915570693796333 -2.0366686116270776 2.0618118810704416 1.8795573988940832 1.1841665158383639 3.3191613927075205 2.5422799405275343 1.5363816590804453 1.9187711514589394 1.0295940372523493 0.9222927478092705 3.915508086443493 1.6391540008443446 1.253421918683664 1.6033608665391519 0.9308497531477208 1.7874068284171345 1.8588904348028834 1.608995151676573 1.3095578564245856 0.6045228518048344 2.4199492912451426 1.0728565738725082 1.8253367104016298 2.7530553456466196 1.4993375962185682 2.245915527238695 2.005331547668828 1.9115261925911358 1.9087674552877005 1.7437229176893791 3.4574659869549222 2.848414197488453 1.0051402196176449 1.3728652917587714 1.452714300010691 0.6659459942638909 0.6590612080806318 1.3649739961211074 1.5321100513540702 0.5794041927447846 1.4242246591092211 1.719475724772799 1.4139041881817362 1.1699292169338573 1.300004074152644 0.3331915770587681 1.210937989095425 1.1772561113501308 1.538425025949099 1.7411525648497719 1.809213548456996 1.5942926968701834 1.284436262271742 0.13634953175101683 1.5136086396356638 0.9668682179475415 0.9813251169364343 1.2609657172718747 1.9941530841455692 3.932445310295567 0.8672096194820629 2.7208446617157285 1.2721028647485313 1.991516585657714 3.4855264987226255 0.6464411508113935 0.414025782371117 0.8656974785447766 1.239462082406004 1.2940591883316017 1.310560085531948 1.5918913395329028 1.3051418990449901 0.9432797040778164 0.9103357647603961 0.9012138189000959 0.5010443468192598 -0.7853271868365826 -0.1762744416574983 -1.2970656751992928 -1.7130618801694848 -1.07714575796919 -1.5533970210930175 0.2802229715448263 -0.5324362931297302 -0.8641940623413248 -1.7459179470929274 -0.611391844847809 -1.1836987885044117 -0.0027264652069365156 -0.09145344929579381 -0.07294912193316709 -0.845493300465587 -1.1581119971784892 -1.3447148975163654 -0.07378749503245825 -0.2788658128150551 -0.09440197272913951 -1.1032832425187737 -0.2962270475218842 2.58892874320736 0.8476537075346353 0.5069180540014985 -0.6655452202486722 -0.7193395423254523 -1.440030577609266 -1.9388514576593312 -0.30278578884150337 -1.701797660392653 0.7335487246771396 -0.4441601602806704 -1.8894991537076795 0.3376953798879014 0.2845395493917542 -1.818833986270483 -0.9380884438697024 1.1281054373570198 -0.1370203562734119 -0.9826233957962245 -0.7346868591148277 -0.3709621991354418 -0.019177552078398857 -0.2563566470565005 -0.23265140301889922 -1.1993357713756356 0.2214980922660391 0.3328687515626058 0.19369693675663 -2.3591452168105564 -1.8378258371177587 -1.5455519976655145 -0.8359329729707232 0.7651529479474527 -0.3700631502267693 -0.7988277647081262 -3.143628981455825 1.3380558122340993 0.9735700925447832 0.359036455577379 2.88611419039367 -0.6454788324577238 -0.502067951609659 -1.0316150735224714 0.12968998357278907 0.14923532921861918 -0.1516423582674457 0.18604080312918536 -0.2590399048572183 -0.28104591233556336 -2.3225595667834824 -1.4266914553231569 -1.3214744907453817 0.7008117219832285 -0.6839981323276328 -0.04923657429553612 -0.024143778293874717 -0.42111961468149073 0.8260227283678663 -0.3721169976817813 -0.0942106893475548 -1.9515233204451468 -1.114069495575829 -0.027431133987033795 0.5102799590669845 0.45006616305165414 2.6622785908601805 0.2854835760656477 -0.79624963816284 -1.6359912754478494 0.8975291199142074 -0.10302375086553602 0.18841743096138358 0.37199936743658085 -0.19893714995709436 1.1367930350966489 4.204861277436733 0.6595059702392 0.19454193115234375 -0.01596901667566944 -0.3542059100533315 0.18045351214387825 -0.001992091348311561 -0.1432244085584914 0.3767805249644624 -0.43709890373658566 -0.8557930951374066 1.5974851415386324 1.4139270882142214 -0.6022481651404024 0.19215406856413833 2.7393760521882493 0.865995476781267 -1.2028317378607971 -0.2631640140736427 -1.006386282066558 1.5663384107753597 1.2583096749912672 1.6994485052778632 -0.08914513786233022 2.254662683838044 1.7310870661850024 0.47520139107846787 -1.2807963597116123 -0.6425743046705655 -0.2749429740465264 -0.2500298251892547 0.8711244571534543 3.2593569515933374 0.19992662213322396 -0.579040696523692 1.0331574903523146 1.4751864902460357 0.7626537575594042 1.715170664791587 -0.21694857970473036 -0.042722812880408675 -0.9450587237181031 0.4076597489956201 0.3705067504702121 0.36889358913608944 0.860507822238303 0.9259465363132439 -0.10237297977504034 -0.5268742966376614 -1.9032400509069092 -1.1035378253805788 -0.4128706060929321 -0.5757998951745867 -0.6785094877096177 -0.4498754392829865 0.1521854888690594 -0.9818466321401029 -0.22607457608738724 -0.6322520354942495 -0.36023955262032814 -0.29729789835265036 0.2437545226711438 0.17998379874414194 0.1911628712826381 -0.019037175548113055 -0.6079806739751301 -0.9654744121281333 -0.03795065972659401 0.06340282200436283 0.38646314554177996 -0.05698459998805813 -0.1678182248082618 1.0413186876510219 1.5463256770363643 0.3390747261156948 -0.7082719479895861 -0.5883978609780987 -0.6267762431968446 -0.5036067866373163 0.15934106816763238 -0.8973240595934353 1.220043796017814 -0.767259766707333 -2.4458295525952063 0.7864524951851279 0.5134610748304942 -1.6450266682395966 -0.9259462540245739 1.6041796353292361 0.22416555466375365 -0.864337691831477 -0.3893247535989543 -0.5225440267808719 0.0021625618812197663 0.46828074641084627 0.08802552844587476 -0.5261971097568323 0.881066695338094 0.5614453258954462 0.7195940856171067 -2.5843139723845296 -1.1805452294349144 -1.0833982767935086 -0.10903890453579967 0.7534923786705915 0.342678646536157 -0.229933656854531 -1.1242714204581894 0.5798788965028401 1.2432984402129703 0.5651282038299855 1.7986348140724344 -0.6870654805989781 -0.9721888738981369 -1.432374699907259 0.4796160162978346 0.5264287599768818 0.16451119000485945 0.5427248512896596 0.37117136852176796 -0.5023664714103827 -1.2004132476092002 -1.084062981627918 -2.4373104853346175 4.6215229280887185 0.95813778822547 0.30047984652771126 0.4277733140939821 0.3329037261646332 0.41891195388029606 1.3890579665332072 0.5194295049943407 1.1638610396763287 0.5976170756705148 1.0356021939324165 1.1020302940565196 1.087208910782818 0.8864673656612082 0.016873008806410038 2.116797837102903 1.559499567387105 0.684487412966297 3.0095676900624806 3.7439073263553495 2.5193581945321166 1.310535638330775 3.9805432623736516 0.7973000888738971 0.8237165575477499 1.6644553945203238 3.765387563509539 -0.5455085316345101 0.13212417648583585 1.3024145159895646 -0.31293958695248847 0.1236784832521545 0.9703693702948711 0.9007450638465314 -0.2779766163557648 0.39459352673307313 1.257787662818783 0.7556305186529501 0.2527052520977327 0.49526164139254797 -0.37714294765802325 0.7660074378597402 0.7027715258293967 0.9039035930349828 0.3008525501295391 1.1705461614756665 1.0478603978512369 0.8909664817260508 -0.6015516388945086 0.0704677638341589 -0.23344777811035974 0.19703390088698172 0.9706793159782114 0.9367780360523135 2.3072116953781077 0.15954880667312163 2.2696217304431507 1.028874853148659 1.3142416132359762 1.4926638030323465 -0.11316968560330651 -0.012116365233688793 -0.2106274442498782 0.6542495037174114 0.44355315998051087 0.3984177450661135 0.7095477759695487 0.689063516670977 0.3647700694473708 -0.3233344818001427 -0.6377514957811348 -0.5385116038721396 0.8288641298634897 0.035814998129894464 0.36192635874354995 -0.3768504463140196 -0.19969454093971864 -0.004539832551665462 -0.29880961411267143 -0.029002093621298082 0.33671244076616846 0.49674017364168677 0.34548052065268536 0.2724370948511587 -0.6039942558299575 -0.8742311555781641 1.141287217020497 -0.24583625244563911 0.6231435323650161 1.9625264162971718 1.602343237518557 2.0008181596553336 1.2122155231538192 5.208997082553341 0.03492819241020857 -0.22764680145780616 -0.13792189321384 -3.1473731994628906 -0.3116829579649995 0.0685127304234853 0.6246407647850493 -0.9111959915326328 -0.511945459810135 0.4755098655957484 0.6183747822094495 -0.7840433452893408 -0.2539143274549476 1.2367756031728778 0.3243630186114824 -0.43823697466609013 -0.23161699465322386 -0.31314098361848014 0.6309200416939027 0.06719100493435369 0.43249863030453906 0.2629164348976194 0.6617136398741472 0.547687175690742 1.237252100253622 -1.2820101941322601 0.21968230084709597 -0.39740613086798166 -0.00898933951890188 1.0256702105890345 0.28964612585063165 0.12617385483527488 -0.3887429607375651 2.7155640315410863 1.1967472138278021 1.2884968164433652 2.2635144782510324 -0.3962951617345909 -0.10747787867475986 -0.701624374935147 0.7512269949319766 0.39702299637863875 0.17567344226757742 1.163697831224179 0.31005170335813315 0.18859840077850465 -0.8264832816988505 -1.3159529011829925 -0.6355462674581235 0.19482776476182556 0.07316542269679416 -0.090933417513648 -0.04981963069809024 -0.037061504558556266 -0.07559842817971157 -0.4305046984850569 0.36494311914826233 0.5598738717581432 0.34383934664139154 0.20557343216521828 -0.005612368403829293 -0.28515153203872146 0.7496429170012361 -0.15161147850626663 1.39389194019757 1.4537901399251152 -0.24725316457643026 1.4963203380422825 1.0748031312722068 0.764269062767699 0.10480961360442659 0.4831222244038679 -0.5393340291936614 -0.0876047758890034 1.2804671718951555 0.03660818745827403 0.4721592610355778 -0.2846382195445189 -0.26942989854179905 0.4587942201291184 0.504250888386121 0.12343735274089344 0.10004602536214326 1.413851268244166 0.24290313949497416 0.0034251834187722947 -0.17343676403276886 0.8020978508178901 0.32751069213316736 0.26053742320476203 0.3566372892819946 0.46091238219504005 0.5043266472151979 0.3856655065982479 1.907054069845398 -0.6905588938793882 -0.075963953333535 0.7696212128596083 0.1412277650091019 0.9455663595251007 0.27038474768770654 0.13983781916946436 -0.40429330683904735 3.059886450988131 1.129966815837856 2.0489280114102018 1.1979175879412916 -0.16706586881497376 0.49466145457723865 -0.10793562327210351 1.4371725030568026 1.944281942475124 0.7455820192208596 1.2907574799234385 0.2613954280746393 0.7999756327591161 0.015369847738958988 -0.7643031054480702 -0.5413855602641153 0.6544946737951775 -0.14456900227361374 0.43833410910623616 0.3592847604790504 7.67438975891047E-4 0.13639625424843121 0.52717365092439 0.698680386406395 0.5238851872714235 0.5592150583773995 0.13696761763001847 -0.9953869311720036 1.3504815216950576 0.27600042656698187 0.4454313131940821 0.980897023639909 0.3712539609678694 3.547550201879627 1.4124377970116158 0.8065910198622481 0.054782699893186924 0.6518844223529776 0.028431485951944502 0.3448041384147816 0.31747009248763747 0.7682223996196634 0.8545675442290869 -0.6206605391351695 -0.7035356361420044 1.063651096969793 0.6273405570393755 -0.897011411682648 0.3532732957821299 2.5198152418654245 0.10095346184902182 -0.2744485815897539 0.03516845902757874 -0.25766846546486816 0.5323867571985217 0.2108581370974493 0.3327390035575866 -0.5879851332507107 0.8343155421152355 0.7980166521882393 0.6896415216486544 -1.5779313186537585 -2.1769470823516204 -0.6252394749910006 0.6191500024254691 0.9388480003739055 0.5939158162040711 0.13834084070813232 -1.427468102934986 2.9885533006763474 1.2924796497488806 2.112296713356567 2.610402490485765 -0.15475304973865778 -0.097219996043667 -0.6168000663541344 0.616707587109781 0.4555540907788437 1.5952261102644003 1.8059393922838638 0.1892364649786711 0.32826944244148587 -1.014031049344385 -1.4346166270894558 -0.8191194526443691 -1.2119012516773944 -0.22899896589168567 -0.9043126935082206 -0.9057636135279777 -0.4962488088332955 -0.37971016446781697 -0.010136543919674331 -0.5787253198292595 -0.44632497670240934 -1.3199876649060682 -1.6482378991823197 -0.5338420397142617 -0.4560723647505129 0.7597230081040969 0.3696611497144948 -0.24815995457781417 0.3716335177717228 0.9573718846753155 -0.021543739637593484 -0.9904712979312729 -1.4018286189452944 -0.3451734406263912 -0.3013195168396272 0.5750495001349961 -0.6807243038647214 -0.6886685622008479 -1.167375331842529 -2.794368714509196 0.24871074714387775 -0.6868336911086734 -1.5891999330739375 -0.9404097263250196 1.6191017499032154 -0.6358597519394246 -1.093761381843791 -0.8366814082266144 -0.3433799822932087 0.13410669802075265 -0.540835171810631 -1.4081570772229375 0.10919499525894749 0.6372778565809935 0.14737416470309003 1.1744136099245022 -2.712944346278841 -1.4172707967193339 -0.862432834806576 -0.17885015978267402 0.3980595964249487 -0.40176369882893803 -0.40416500560315083 -1.455280785579318 0.04573417610715578 0.5033195777498362 0.35805159475782833 2.1043837417000755 -0.7544702976561639 -0.3594284979252971 -1.2696805634293897 0.7975127487707931 0.5393669919273305 0.026250258565790625 1.2203510959704433 -0.7893975883385804 0.09977211873076525 -0.9834197160456443 -0.9662715537220287 -2.102266286842042 0.13192044550750404 0.02919293337170563 0.3462419987123804 0.12974972290279274 1.7134561836813835 1.2668364548058813 1.5406263728896428 0.49903142506490983 1.330870257479239E-4 -0.6202266199076321 0.47338614975958215 0.7001735696689123 0.34547581829566304 0.4574310883000381 0.19638375551401258 1.4580987833873715 2.3472399935467183 0.9360516250650633 0.07680324878124038 0.6132704242501437 -0.005284126802915492 0.18973692473798956 0.0562895293865134 -0.2174788217994463 1.4385624291989405 -0.28636133553376064 -0.8710331188813797 1.7111525388582898 1.9223116372314593 -0.07889877393308357 0.5908114182365821 1.8867997187749175 1.0521328181186853 -0.11715334002561895 0.04727675867283023 -1.6586639352081605 1.2469091001399408 2.127125875130069 2.360964559103495 0.031405735320365655 1.70460189361627 1.6546663090686229 0.7027388052842651 -1.6404149749496058 -0.4399867264802534 -0.06996662561390637 0.7733497146742394 0.8932466162583864 1.5465594200337398 0.4134297986854617 -0.5326139271110065 1.1063855346826725 1.3010798138868414 1.5789668064962565 1.5233017627637095 -0.17319747503314467 0.18869317381835488 -1.9524695919075186 0.6341517588119023 0.5736138504793467 0.8709195063857645 0.9360771455027893 0.6961167637597826 0.14097370819423408 -0.278620622619508 -1.076982303268721 -1.466432306163621 0.07953094666809679 -0.3600988054658868 0.22762216874680302 0.4888674919462 0.660244467492868 0.4414889803485127 0.28573293750305767 -0.3848016756065417 -0.6544757199743123 1.266020566019323 -0.18803052862790104 0.4924241501206111 1.591411124195972 -0.583082050522393 1.6479550701596437 1.7827481017644562 0.8097797675560765 0.010568077803694237 0.27419398059159705 -0.4129253681712506 0.17896630637072009 0.16165224022465405 -0.12329006622508687 0.523457646530342 -0.8116231965443158 -0.45988441272638153 0.8903822397363705 0.5797011590392733 -0.585811809952005 -0.2752778508964487 1.3246631720158055 0.36540384640903467 -0.31680081532029325 -0.4544415269950689 -0.6824601280275602 0.45639026005750355 0.30161693489752667 0.5725144146288196 -0.5090823944293869 0.9167325222528944 0.7924634569838717 0.3993448823054617 -1.1874461009653512 -0.9992676988828499 -0.584773150012223 -0.7134555151636433 0.719665876554516 0.7464937909461333 0.4195031741633406 -0.7752377554540251 1.2989384654277714 0.9612204136153745 1.559314625885817 1.1076028457685216 -0.3423651957528768 -0.24859572778753192 -0.518301561785742 0.4488137803790166 0.4438462521742048 0.3827255552684449 0.49818407878183724 0.34166973800946854 0.12658922372215303 -0.6929728202142211 -1.7876308295853833 -0.7499638949061505 0.07902022557242643 0.033926621791767246 0.5160756765042632 0.22383593120508696 1.8764355384624711 2.390272737732562 -0.8131268060549832 -1.1274317043494406 4.639635478584923 0.7971518217045624 0.16072094980882043 2.206158184186242 0.2165283415957037 2.6600365039570733 2.8550330265787727 2.079866163762433 2.2562526947098953 0.6987621423223148 -0.3688819431394927 0.7131651478416463 -0.30673417315001505 -0.29318413100387575 1.3637187012423808 -0.1935100230002828 -0.12178103684033682 1.7316198060608299 1.812149034965969 -0.625308353590798 0.3869695799328724 2.446344776165233 1.1669021629535676 -1.5690865799713096 0.09222733230086459 -0.7449952285134099 1.4303697128054853 0.874908784035938 1.5082587042207496 -0.4169366582029966 2.431664510566499 2.526581500219948 0.26096907205359837 -0.7258625112440149 -0.44014263920437 -0.3489995878741487 -0.3256256338628044 0.9951897526223809 1.462070563653973 0.8603408659579989 0.1731639623180342 2.2612422039975604 1.111727013255729 0.6465474778152482 2.146142265572003 -0.3190175190375819 -0.12052480799049489 -0.7703622717185341 0.3335460024617787 0.13466525723211445 -0.002800234453318883 0.41986243225244974 1.2166697558919626 0.10216081503352019 -0.595063207666571 -1.3104592076627717 -0.757761995013255 0.09992423416887553 1.3125461807289045 1.2421264472279265 1.6539147604136528 0.963724929622543 -0.17057064706358957 -0.8987568389813084 0.5711118394316484 0.7957408722252544 0.16014013101887273 0.40288668637232866 0.2764915831880044 1.0882223606223493 3.1884418092880065 1.433940430608153 0.5057348006029566 0.5727024933666991 -0.14902490277113697 0.4436671496842081 -0.0416290024925914 -0.16972417694343608 0.7628954940963398 -0.6900258633097703 -0.6163934401587066 2.9340531689473215 1.1579833476433794 -0.4039125045205513 0.24861007900331433 2.5905518485424524 1.4065632957451255 -0.4565582903303127 1.6165581263270217 -1.1437484363039354 0.7259543291019925 1.8461801863365799 1.6210829313064545 -0.07112129601944316 2.5530451582966376 1.6159107035059423 0.4067023843636127 -1.0833361762620743 -0.7071359607487445 -0.3039983137699303 0.4145908827501012 0.7315780961801716 3.7709446993150433 0.42065114626071926 -0.060619834381832015 0.9540164748007258 1.0672812479142126 1.1150375654557778 1.3424984212464381 -0.16078067953414613 0.045099367216092624 -1.012340272920894 0.3512582075644999 0.4341985963214552 0.955351380384954 0.4815563608431223 2.285896255846 0.07679041398593797 -0.4200954147339151 -2.2504386853746148 -0.8900078088085946 0.14090159537650843 0.290391697285539 0.38594711952321514 0.1738345170758721 -0.1850852272312673 -0.5258066093309965 1.5897805519745791 0.07951360422474223 0.8506050590996216 1.401528095905029 0.520005733236961 3.4497230990942858 1.0946153471451754 1.0427407952613674 0.05680900727010813 0.1322638003863702 0.4231992913744719 -0.14244411798234005 -0.006250970628645153 -0.25531148293263894 0.5601660277893801 -0.14311688185502022 -0.3792956676197455 0.49371971077557286 0.3866641051729171 -0.5091170047301734 0.467053776937151 1.5629036346751335 0.3634313093433897 -0.3842057474289166 -0.11782523695515984 -0.039860316346781464 0.4271766170783356 0.3310884251452302 0.41641188874638124 0.8633851535053095 0.6561266338062846 0.6622320298366647 0.5436760545433548 -0.727328653953087 -0.3802038988809593 -0.2553555717644391 -0.21622799407488605 2.2142888320189495 0.2505067293742984 2.6708980662032618 0.3291506960646877 2.7156728276716597 2.149471100689978 0.9189753706940987 2.7548838741101087 -0.24996591038268184 -0.04930877014891128 -0.4952410541464023 0.6415037655894581 0.3893344571129502 0.17612565428174748 0.8520402613882585 0.23351679995123212 0.19979353004033273 -0.549039316662763 -0.5972301160124744 -0.4094522851825977 0.09332706645399524 0.32264374597915907 -0.1433611170786657 -0.7968042705558119 -1.1582063493579362 -0.13464471426668195 -0.25714959575866697 -0.011048521862407647 -0.30914854882011494 -0.2949050416081095 0.4985990282292423 1.6012447550604925 0.3219877666153583 -0.5260176609226103 -0.6479872456529999 -0.30681392605572516 -0.2553259310261244 -0.034013515501653956 -0.3868650763047834 0.013660757196485742 -0.9450686107548303 -1.2725642614135193 1.203434856422021 0.522442156702805 -1.0487685760651622 0.12009393740968961 1.4183940880057069 0.1276886201628254 -0.7169190772913354 -0.9626279451262345 -1.0275782114936853 0.3140100124953701 0.8692098966728579 0.30337124766424106 -0.24765228633219802 1.0795625819560297 0.6616871289651425 0.3366913096401096 -1.6447865756988544 -0.7152963128478527 -0.6509162576182828 -0.4666450168253482 0.8332045617059546 0.34585458064734725 -0.12773489611307867 -0.31149917033665003 0.6198802564054285 1.4660387514133575 0.2628124206637003 1.4267784710578864 -0.5560266699749463 -0.6144338638550233 -1.427825099466976 0.173974434918855 0.30910966958875735 0.006194912936218612 0.15715562372178649 0.22337768336548058 -0.8503102288100421 -0.8582575328334247 -1.2865889042332945 -1.5761950261772424 0.23632694756843375 0.14602509705725658 -3.1821037142066193 -3.3857005414825783 -0.032304007772607876 -0.5032547198346815 -0.29254041408117815 0.0024967112443810002 -0.5251036174269621 1.2736811257957381 1.0413270879259156 1.622060500860336 -0.7195829137822182 -2.47038218719181 -0.3725298384505177 -0.253486875577744 -0.48011529605301495 -0.6897529296222564 0.38978984775255976 -1.8467025600214964 -1.803462534086242 0.8630863838258395 0.128465492084392 -1.2357227077005442 -1.033677226029521 1.815571478307083 -0.13023662764694174 -1.588216690337519 -0.9846097079776508 -1.3705404382218336 0.0073623161220119126 -1.015034220186177 -0.8728053958693646 -0.5083284914625835 0.9351629036406917 0.7107066815803165 0.09194220629792696 -2.8836320698230398 -1.274715734425892 -0.8247378940175285 -0.7683058931843783 0.38086798854869264 0.1125659001367354 0.13848886293511675 -1.069501979259283 0.44394228797461804 0.7113302801161149 -0.15764398957377893 0.8191557320607139 -0.3405895360514445 -0.5641117115271929 -2.2588724997177696 0.1326090937995999 0.10825647935109645 -0.3462563709567264 0.3333335761166767 -0.12395566559168154 -0.5833442733948108 -1.4120817394430893 -2.5026701015916486 -2.000628920394723 -0.8226017855766408 -3.0412878374593277 -3.802365179543507 -0.2974155806820471 -1.4541412643100367 -0.010896468412531519 -0.3073737740818105 -0.5718877517834149 0.9007414545837996 3.2205338424957617 0.34329906687167006 -3.7773129154996674 -1.0478717551674224 -0.5032111118048176 -0.26800504242609247 -0.37204851192000105 -0.9365426268651655 -1.3230712033557508 -1.291325202440058 -1.6251340417981148 0.8847423411385906 -0.8651550202074294 -0.9367714252152455 -0.4157410368559319 2.4370057383705115 -0.4025589135017242 -1.7011018150585275 -1.4208492553109602 -1.2828127697776122 0.4075396039415338 -0.3448920987357571 0.5268863680919058 -0.44990555513735664 0.9343025470705061 1.034496238433663 0.19019733358360594 -1.7160308672420004 -0.9111468748435907 -0.6848275923332667 -0.5156281225033992 0.6244479153749949 -0.5268866291304418 0.008582139279638395 -1.0415361175104656 0.5720260183426111 1.0267670551532015 -1.0166266807602489 1.8957620563738815 -0.49132338335553494 -0.37821716090220675 -2.849133264404867 0.18557162032511906 0.1774613911401925 -0.1454007882321266 0.28791115495683106 -2.2922761391897617 -0.654042233685719 -0.9376744431315298 -2.1027476015615756 -2.11532290512342 -2.6576837866077385 -2.136556911210018 2.8911082679434945 -0.04172077356031505 -0.09810565992299876 0.6695241448251693 -0.4559255750777661 2.158329314896548 2.242158703733017 2.324078390347101 -0.17261614549577572 0.42746946359920734 -0.3295205734925271 0.21886886686456336 -0.3042172484925725 -0.4685008185256665 0.6875164104932844 -0.6568979393734842 -0.6578567174931627 1.3501812052920352 1.2064746808600963 -0.703627101138006 0.002758812430211339 2.4766355125690342 0.9710483197027985 -2.5374716239211237 -0.7830830878599396 -1.0686820482431854 0.2978810678473317 -0.31142487030125254 0.9115821881151908 -0.3313434794728781 1.4514003526727814 1.705736301593834 0.09863079699745125 -1.2303259254771806 -0.809347779372207 -0.45735928127809755 -0.7985558393730076 0.6760603536142951 0.13472740012258458 0.6704516430468291 -0.30885779192610036 1.3764860006488717 0.9689643676425451 0.1535865742302224 1.5440132801991526 -0.30231116454693957 -0.2217405689954998 -1.4231332927714089 0.21629795907336277 0.12378573789624114 -0.18695727435537535 0.23720088126545794 0.1819015326300653 -0.1902317808496613 -0.6657856215684362 -2.0690802560153703 -1.409830576613626 -2.8405654216982215 2.0350951898913356 2.3990180193456827 0.16870533869251544 0.5897316684993278 0.5362691731374081 1.861347998961687 2.9687173624745955 3.15640591859526 0.7325491160717481 2.369643240418919 0.1440858346932249 1.0582351779075365 -0.6683778538467278 -0.24666925029822426 3.874369330428778 -0.34421109139680633 -0.7057077038969828 3.4768517139522643 1.8221893982717363 -0.7776696567421968 0.6527518903973084 3.2594593977418227 1.6319245349599258 -0.33445114278815713 0.21139756369058338 -1.0949896007024198 1.0973093526813267 2.7631977645795183 1.302949364524752 0.026575334412120358 3.4138205321560364 3.056624983471694 0.32503893713823706 -1.9549803079927972 -0.470602016999495 -0.3593589138997099 -0.21147685575615918 0.8425499043336993 1.8828402232413641 1.0388934272444215 0.07490127486173485 1.673235735396517 1.194392796047463 0.5991076112815913 1.9862539143569324 -0.2690681566954317 -0.03590471472521178 -2.0220629178105023 0.3325990803718064 0.181884189845587 0.16327153568782388 0.49020404200425205 1.5602933747422378 0.19267171509588327 -0.7101463067530207 -2.61222557434738 -2.010274585768569 1.8561157365363705 2.6413879739159425 0.26914887949029387 0.699156271814695 0.6253273184695569 2.479761945665411 2.9277449193274085 2.100534568280097 1.3521783949862336 2.140307135665498 0.3806733758725303 0.9410046767562132 -0.022147134250947248 0.4791981247252591 3.793597667913807 0.9140568429660255 0.03227273424128764 3.0085312386199643 4.088540355697301 0.057718537250694826 1.4969482848118274 3.3417654522709053 4.1340231148194775 0.21544988534516407 1.0179054801855318 -0.7234807983080662 2.2979965540643983 2.464011528628434 3.1050963281460455 0.30472379971435337 3.4465238846540456 3.764019440851539 0.39572910386254223 -0.6335661230041938 0.9223041658475157 0.02299046762464373 0.33240570677861275 1.148035551545064 2.451394425184059 0.7971229581361602 1.4583449973478804 1.7241521303316258 1.4784691063412039 1.543916469602273 1.9409659332586053 -0.08354985774368269 0.1878346213576337 -0.4573891073254905 0.40109998468275804 0.3340344776707959 0.7811264811838655 0.687058710896293 3.86934250336388 0.3810551216893605 0.2339632449413193 -0.3462981508038589 -0.4112131270450902 0.42615469094501784 -0.4433002055230131 -0.9606339850035147 -0.46412573733933876 3.401588542527873 2.504158643852006 1.9312609989251008 -0.6614302279309895 -0.0909222915262876 -2.0857382618787375 -1.0817262197526079 -0.6123452539882275 -1.142337267207934 1.0343250030379294 -0.5710083140582958 -0.29258490958649835 1.361206579904254 1.181250554906559 -1.202453459899803 -0.3934179125227626 2.3161952478617085 0.16282402670868948 -2.5693536481500274 -0.8846690894861912 -0.8137144927894324 0.07316495435703083 0.6261294076452817 0.6242375962558081 -1.0403813482907924 1.5606750094040167 2.0459467889947405 -0.031596633161623096 -1.0813132231601954 -1.5264446199744839 -0.8254652283836122 -1.1750630113626992 0.5858888883014441 0.03722040581397274 -0.17538023916623086 -0.987164836530047 1.1076808596045016 0.8642602115047713 0.03190291503122284 1.5613999756534074 -0.41193398183612473 -0.32007328462289747 -1.1424395022668061 0.049706381840157084 -0.245327010580223 -0.6228690279937891 0.10654793645531255 -0.20225427837994153 -0.28881923634325146 -1.3642200008219452 -1.741567122860253 -1.2463649243805495 0.10947561742794881 0.4517065424860516 0.3527341834703739 0.9861730552337526 2.5992681052743363 3.2596941266791775 -0.06290323210399475 0.3872325003789074 0.12081686943598868 0.8423140855059875 -0.530608014027016 -0.3742173771149381 1.096250011819388 -0.4183226773407533 -0.6628580122531522 4.099914959610027 1.8891071257849674 -0.4952246552611276 0.01965149568782617 3.73527276670219 0.8655032849813309 -3.083663943993829 -0.5586499568975466 -1.0149710215875642 0.37743792721943015 3.1198107349669733 1.2455126441380213 -0.05643650655851734 3.944122638170147 3.631122560788794 0.2959730285330295 -1.0728845327674585 -0.5183703869746403 -0.2846721821908362 -0.4308465777185262 0.3385866489145764 0.3867521330498603 0.5714480236683844 -0.19262105463100887 0.7781365967691577 0.6207408313317769 0.17805988780882842 1.3878430972970783 -0.13656225383249698 -0.2029574469667131 -1.4764662056784936 0.2983132146299335 0.23690898624370516 0.030328566982673916 0.342735772853923 0.056955359836546406 0.01577359045313488 -0.4840791989439377 -1.9376494873503638 -1.325251984996544 -0.786677295117853 -0.15818607967635598 0.4333649993968572 0.35693093112274127 0.3097100020138007 -0.24760326458539195 0.19113404648376617 -0.9899612045231742 -0.6962303080545595 0.08488550635870984 -0.6260122749903521 0.2506550275839672 -0.3521257456248118 -0.7719468380644253 0.3829464374856577 0.2421274312711598 -0.8198084667210104 -0.9445753475866505 -0.1529780184392467 0.18827159385149506 -0.19529027952222813 -0.2920961866603826 -0.5852090545772543 -0.24040046753782876 0.25214866368849026 -0.052808626616562195 -1.4566555046961882 0.34821302389354875 0.32188532786117696 -0.0979994579263483 -0.9778301014992273 -0.560034120956638 -1.5309132275656496 -0.2105446212503231 0.9038676139546054 0.07204322305422405 -0.2260282806322494 -0.6801308738010695 -0.3475721666350808 0.7233980224505838 0.7338599961494495 0.10288270190057233 -2.2055478601016247 -1.4192048039181133 -0.5607328143812031 -0.25161322625086857 1.388874481260021 -0.10667312694618174 -0.6287609805045019 0.11478980841288927 -0.550430429994859 -0.9139953484223826 -0.8431023173934002 -1.1497197429076706 -0.3656505431596985 2.545445598741173 1.496452873899129 0.6524828207449175 -0.3170585144946192 -0.48872529393479924 -2.470726554097629 -1.1814895472891986 0.5439841870586548 -0.9372834942018395 0.4325040812423977 -0.5236939178111835 -0.7311620925473125 0.3178504076974974 0.46144405662771365 -1.038149871047519 -0.745143181844716 0.7118480988004859 0.12371753247844625 -0.6589653282012821 -0.5269165696838126 -0.2778122537066013 0.08384559926576116 0.1442339371760762 0.16007942959570481 -2.26467455896309 0.500741450488648 0.5559209265974581 0.5673778846383203 -1.131006286339331 -1.0966353606294175 -0.9549804626416938 -1.481737978435046 0.9909121679651908 0.07743131118707172 0.20457159068121544 -0.5926012028987575 2.1384317053421946 1.1593204178216203 0.9545858056771609 1.3482308322523773 -0.8180026647319485 -0.6008763663517153 -0.6556169164550093 0.5749195841614247 0.3734138861839553 -0.08361223956055053 0.3876915339477827 0.06009158098314598 -0.10677438154958044 -1.179528887310974 -1.0700374053285622 -1.003423968904614 1.1915223930636238 1.0932088150602361 2.163540352405092 0.25248040768623836 -0.6339205808941465 -0.8906231803001688 -1.4321691888583734 -0.34619164253423823 -0.5815244028849207 0.6277511452967026 -1.028549528640992 -0.20169875692018172 0.5657123007166884 0.5491754743057773 -0.6194724785127497 -0.36939505845021325 0.9398730234578284 0.4483917015598686 -0.326643487889841 -0.0404140209085746 -0.7903763343441409 0.26868694256394904 0.2129171382385464 0.604146317278043 0.0015866897141808504 0.8550139686916971 0.675154613908928 0.7884066109816352 -0.9991249759817294 -0.583158400201793 -0.24833579753249488 -0.31511151239617446 0.38577670822329896 0.49068204318179287 0.7085274440384813 -0.3972532370451961 0.768362863237167 0.5044502985271258 0.7551015407888085 0.1538295768781889 0.039540070540550476 -0.18862351539104014 -0.5716710737047368 0.6034876480978887 0.07898341051231385 0.040916605820297304 0.7620512570285419 0.46773246057564277 0.07687861541114893 -0.678835177573437 -1.3282971663701244 -0.7754317610980133 0.1349596100734491 -0.18411897289814688 -1.1521824375989278 -2.3477961182699443 -2.67349134310675 -2.3330573539267436 -0.6355137874802752 -2.664867418109046 -0.7043270465254753 -1.181646057715903 -2.5058198560368536 -0.3614889300963075 -1.0495307364893298 -2.616054662858589 -2.9164092412980884 0.991615932239054 -1.1531144933449102 -1.7422948211490525 -1.505474255688349 -1.1642732573254053 -0.906782281920337 -0.9873610728881084 -1.3972236458441183 -2.223139116789664 0.10104753208646744 -0.49583753646740525 0.07011009610293624 -2.2887487366424684 -3.369620821014037 -1.7648775299438315 -2.362324590006808 -0.413285330396205 -0.5975074953789906 -2.2314068299745813 -3.1110095128523114 -2.169636703055323 0.1945677999043589 -0.7861445945604427 0.8537189038753179 -0.7880245843816767 -1.1580093353313727 -1.7426398578420979 0.14573847491391018 -0.4822028896172741 -1.3863664808219125 -0.04059485820467137 -0.9377769717831299 -0.844309128314059 -2.9276040635626646 -1.8916993588090372 -1.9911142018519794 -0.4360435857733499 -3.6993963651650787 -2.559044815890951 -1.0448872835571816 -1.2236966579421535 -0.5065214609117169 -1.3287691055888302 -1.2361995819826186 -1.8107457630523713 -2.178887401891424 -1.9874671354705822 -2.590987904883735 -1.375010433999637 -1.462242519512784 -1.2640086512925637 -2.5566376326778886 -2.557321188455724 -2.865734252092408 -1.1968393274200213 -1.3470332385995358 -3.1023605417307842 -3.752769196643787 -1.360500813769134 -1.8564053364391524 -2.7168051585149495 0.040651156818867634 -2.1486020202954554 -1.7649808182917401 -1.1130497678479923 -1.2216556849339946 -0.45704325890919795 -4.883182749599421 -0.4303114566820037 -1.8071360466412525 0.011588461350137802 -0.053466590468554835 -0.5943689782737236 1.4914101158849338 -0.716241207086735 -0.7504684533180002 -2.9536820372869057 0.014511511337394182 0.10950594445456337 -0.6364510628578779 0.09080943532737336 -4.840560597250461 -1.2234668123269845 -1.544286556735616 -2.883588758239007 -2.2580043689815317 -0.8172342218944264 -1.8246890577238568 -1.2422341080046384 -4.107574552627331 -1.2524610971165 -0.733182626875571 -0.8614066820599213 -1.2892697034928429 -1.0448488670698703 -0.353643478882072 -0.06546888980733945 -0.8705172465533828 -1.1891591520396687 0.6965515019193387 -0.43421158499609824 -2.272510236664794 -1.0315369643766157 -1.0280438843309472 -0.33259281030249754 -0.6179870116476637 -0.32029111886923034 -0.6929386109728775 -0.16241910733719941 -0.15131977071398683 -0.1305679568749326 -1.4507254911787062 -1.008458718818937 -0.7296005900495557 -0.9029506518696837 0.06038364042336197 -0.7235211349501137 -0.8197649381160478 -0.8830767056130215 0.08631055954389649 0.24159977071846772 0.24330523542691668 0.16468658954594179 -0.456349123628419 -0.4348336635885519 -1.6313044476372596 0.19807901006722323 -0.2602489881871834 -0.7527464424214941 0.14711551565978398 -0.6119194391171189 -0.5204180391073934 -0.9373474469205143 -1.7924500163076256 -1.3897199795775237 0.12853479562381942 -0.35642074471703694 0.15003234184055533 -0.060932497795775475 -0.03810023678681773 1.2359743521218343 -0.0043823575307352786 -0.6495510355717947 1.0568339555631328 2.4682756858443913 -0.3709578077295497 0.3324051596584026 2.695246056110765 1.2783866770656653 -1.1016416732145524 -0.29743261288926554 -0.8656944635245036 2.041733054177326 0.7934622423961555 2.012318238834569 -0.275074909891181 2.455998012845036 1.9848228987929577 0.43719630069511334 -0.9205215595350402 0.06828310730475096 -0.5759345576753794 -0.24500447291052468 0.8676180011548794 2.1330869883744383 0.15903900098431248 -0.4821225295205753 1.1000322544148313 1.3353646741518046 0.9653786229301836 1.617643511560927 -0.3034118736057392 -0.04363158588626375 -0.8823769421970817 0.3179674426620049 0.4193599674959876 0.4217835431676914 0.6956505413485505 0.6630766346490095 -0.07559221529730109 -0.4438410087488319 -1.3202902594408599 -0.8986752623358629 0.09172763892381536 0.2561112916057107 -0.2471933799809053 -0.6797299436604866 2.452218759732687 -0.9482673650406275 -2.973758356066074 1.0099330628425185 0.7637759457647645 -1.916610800000423 0.20760137963903796 3.0807910076659333 0.4896966604170558 -1.286551856948761 -0.7286140338667721 -1.252858048127581 0.7025719492541599 0.11662790614269775 0.055358499084702396 -0.40624565153660497 0.9516805624718035 1.4017196124702127 0.3109358812888901 -4.98640525359695 -1.3535969371142418 -1.007732690061363 -0.593215485152018 1.3659327975212259 0.6467644371581327 0.5115804973044672 -1.3344131699899975 2.340597462965644 2.1445000285967284 1.7999667913689348 2.1112647270712164 -0.5568821649721905 -0.40163952676186865 -2.083308055738116 0.48127660399110805 0.26793792088835566 -0.10178734586385237 0.7722074136571657 0.17990893703615438 -0.3365903784835051 -2.0780260471572274 -2.2220878899739906 -2.471342152405914 -0.2804091114448575 0.16524701199883401 -0.24663978482349255 0.6039315207328357 -0.07780921033317575 -0.29721037990027555 0.44122440444567457 0.5977128286097246 -0.4878650022346044 -0.22202653859637925 1.2699162149386438 0.3749097075133136 -0.2087474914012196 0.16863526421750813 0.23627245390965723 0.6916378653050264 0.3079403541075856 0.5036993629798582 0.41721679802157646 0.6131339062864183 0.6654580882414082 0.7673676099659197 -0.6683983021677155 -0.11687705357310035 -0.25277161822229455 0.037253299163391096 1.1617876643358593 0.4065788419167438 1.8811948790563993 -0.028309973825766846 2.650838680810425 1.221287150952168 1.1595534455174095 3.1545311415281985 -0.26088363138196696 -0.12299584929373736 -0.09190826468979317 0.9348651170714781 0.16254806370706076 0.30589189243104964 1.5296833316462999 0.2335277629252855 0.4471888563302768 -0.5456779988965587 -0.12739957933396626 -0.1954033237927682 -0.5589285751924252 -0.31593141090131593 0.7434635801148834 -0.6613780700619566 -0.5907393441132343 0.3732395355662174 0.6574157977425543 -0.7643559234344109 -0.04383890555530862 1.1141204744312554 0.2788730568628781 -0.7348535923759079 -0.3747237789558534 -0.11556113248451849 0.46648167800003526 0.04751832206844553 0.2972358803238717 -0.35951364560397464 0.5979249128887255 0.5888825948244536 1.2019891630914612 -1.2247413356884924 -0.03655545392053659 -0.8321943226264598 0.09888309670916781 0.9952068223410336 0.11951070442115418 0.7617156668767241 -0.44837035738683706 3.2202092619900085 1.1731577289589818 1.529582841597176 2.4410248653356783 -0.5567033896887215 -0.26983920029328584 -0.574299758289737 0.7972189315587117 0.5459652718962333 0.3010814544329693 0.8726943553759735 0.1719907337828426 0.32994609216178966 -0.9978038873812197 -1.2367360729880215 -1.034868316171057 -0.38357710822962676 0.4295167723159152 -0.13290410383039994 -0.6742171649535725 0.3327725439849614 0.3297892904991291 -0.6640827992062143 -0.6043049416149631 0.5488819931621224 0.18961433368135952 -0.08322375348882576 -0.16406427553862626 -0.049683832080979054 0.016721220451402546 0.17508016145569474 0.09897267596533574 -1.1913647514040684 0.3377390733091332 0.2605553881872814 1.0537104034067917 -0.6591681253332952 -0.3943596865562108 -1.2412859144074366 0.00186785707120019 0.5871190891451636 0.17261015344765532 0.2904020919941823 -0.6133033368231795 1.8696248877306136 0.6044043230496978 1.2150657616350629 0.31936057379726435 -1.2840041416148864 -0.7683826982350214 -0.2810771972703552 0.6171226672034485 1.4438393950829285 0.17266590984998076 0.37476422609154236 0.18048867861509418 -0.16122702637798952 -0.8494535000854274 -0.670129017083295 -0.6007606247223864 1.2715491744600862 0.304544438414467 -0.14093970585771795 0.8871035969811799 1.1277503200035097 -0.4444566492334383 0.08712125451679179 1.6077806744917413 0.8089015671808477 0.03914078310137007 0.10657389894334672 0.18048866603407038 0.7501465347753754 0.562439611697939 0.7394993897920077 0.08051552689391273 0.9010588072385879 0.9602448667393966 0.7988502212255691 -0.8167987737770297 0.5324264934314492 -0.7607345174206469 0.3436074901822797 1.4965684220499595 0.6897268917295416 0.430623942407322 -0.2026325230578347 3.362190409280297 1.6332085173973059 1.0489881622776844 2.496964061610399 -0.46842945712417616 0.10190291105733226 -0.19444488986075908 0.6770793166812002 0.5504613227208311 0.45657978150607215 1.7781268799576408 0.3759949653778699 0.5302276474348508 -0.5908295456038402 -0.12853557698299353 -0.5755699551294582 -0.9426283990706149 -2.926855924538934 0.6552388758328156 -0.6202090283725564 -2.039769223990998 -1.3610085002099976 2.0713583299622815 0.2833331018712612 -2.0818554031787873 -0.8437667691602574 -1.5337211890833085 0.7712970887579385 -0.18210380911954913 -0.9044951827515316 -0.44064010060476333 0.5584029919906784 1.1020689823509773 0.15543403296412012 -2.8089551306057605 -1.378692962618321 -1.2471154170254455 -0.2509000995737052 0.7754309014396427 0.1990463597879826 -0.2971936621055701 -1.8795402848469056 0.15583162727775113 1.0311743568087288 -0.586216778563361 2.6000641551227917 -0.5604815295010748 -0.8668412226196377 -2.2102702187803938 0.07068664636596707 0.13120287236724065 -0.17542693409308757 0.34569630117141165 -1.1519484887393656 -0.902101174112662 -1.4717812698327368 -1.8679660917426382 -2.9081096741183052 -0.9002231718605911 1.5717772688805265 1.568118064726968 0.13987019346663165 1.0255058395893193 2.029744938762614 1.0065349501424037 0.06702051110703489 1.1720106168336373 -0.7062569765318532 0.9647813551808871 1.4696240101060871 1.840067879102147 0.10947986376452819 1.430595133133632 1.2312554007529912 0.7041524956897244 -1.0575054221402587 -0.011496173795410292 0.05658905330955281 1.084436517934587 0.8262821535311741 1.1610178050202569 0.48154663405251713 -0.33617930453566186 0.9317442726006279 1.345242984953233 1.563359757653444 1.4768601624322304 -0.06666628493218062 0.5478116821993266 -0.8461295297316183 0.5808298112469059 0.5241937506216173 0.7941479945251102 0.8433832463952184 0.2731126572087038 1.101094324503071 0.061219808823118144 -0.7274674010274816 -0.9314211307115374 1.4161197232420324 1.5636444256378779 0.16249586536441094 2.286096123978158 2.0779085314549315 1.3466414153536808 0.8398093951871122 0.5568751980823882 0.6364914919103819 1.5600578058716577 0.808035624446872 1.5916079818722744 0.777197158016824 1.4674890878147657 1.584848698510798 0.9854696737819415 -2.607984093649855 0.38918913989390946 0.4568249632861776 0.4338572009249121 1.2268382534743618 1.2613585489266803 0.4949988267985351 1.0443714051403548 2.287883610225952 1.706413410239435 1.443066450777997 1.923733575304409 0.24868506709924246 1.0776419922361586 -0.7960125583099232 0.8176825534063334 0.6742115094982299 1.1353462404183603 1.1108533481679679 1.180963325646904 2.132778871330112 -0.42535274374062165 -0.42819710240821823 0.6135874701576053 -1.0649369192512754 -1.0985412744204486 -0.8499776957054286 1.1820078392331972 -2.3806225844408595 -3.098559244737575 -2.5909118298181304 -1.1962059844919013 -0.7823262378073607 -4.5211419495591585 -1.5036191888742627 -0.7472859093672626 -0.09880828857421875 0.5035416049388453 -0.010052207173199192 -1.6167876364367177 -1.400101237705036 -0.7685230306489992 -0.8531809157888616 -0.09406893845068891 -2.598946928741637 -0.14233577691136692 -1.0667390154626943 -0.03216723233799064 0.12848050846935535 -0.666882675976769 1.0994443087405579 -0.4030612680334633 -0.5942726085255384 -2.14145684876012 -0.0629098033434705 0.07629053834901021 -0.6298688244739931 -0.05075417150820659 -3.303153226175921 -0.8452344496323585 -1.103714583750231 -2.1805537413043083 -1.5680434174135356 -1.0672212876259262 -0.418951754487976 2.3949292595976 1.222121699751411 -2.7059845162175336 -1.1660241841184167 -1.2439853291320553 -0.6793303743373897 0.03780306388302849 -0.15387415244764524 -0.6244571640779326 1.5919266264839242 2.9546472120728824 0.20585565188014573 -1.4666291097529698 -1.2437076651269101 -0.7804794249588425 -0.49887357786437925 0.4096685660799371 -0.42085999884584946 0.10421354571542488 -0.940245151710835 0.503012191417454 0.8511123254210413 -0.6361300513572685 1.6730636652156354 -0.5415218211341938 -0.4782655080642154 -2.247766442652635 0.11058145071963953 0.11878881988049432 -0.21808689559672864 0.17033834500536116 -1.0270035632037082 -0.8452686629246028 -0.8914048112028702 -1.7136858815383695 -2.4342448207738947 2.3329457174276174 1.8696449941104933 0.724308449269467 0.4834923877130417 0.18934791561127895 1.1159197763090443 1.0666255506433144 0.4735613040928439 0.91196501576234 0.5779028531563666 1.0679449132332064 1.0125768678072962 1.2021789174724387 -1.726805928300873 0.5874596817530325 -0.07062710912311077 0.6013385056107393 1.4498017390640412 0.817707571599513 1.064898545341133 1.2953990543699654 3.399030882463238 1.8281250575019563 1.6018431082711082 2.0058672177083428 0.0011954375303259645 1.2752468879092225 0.15053340675721175 0.9868686843114739 0.8572945066868122 0.8950751148905101 1.3331220610822676 0.6729283218280461 1.9441253526153146 0.1559558088814655 0.14005859178280436 0.25482407290281295 2.851739405427515 0.3178199038086274 -0.627440451197424 -0.627191241587129 -0.12040539170440617 0.6047983260438267 0.07588279378701861 0.011427885580249807 0.1630488953632239 0.6905003087522271 1.0232849010604081 1.1461971726790223 -4.225640327080089 -1.3714864044190784 -0.604943348988133 0.562028910062115 2.109892972828239 0.4326042830838211 0.2588575211885672 -1.8438559209053809 5.270032768163949 3.0878087750936265 2.6450610091670255 3.0523231504626946 0.1711759247378887 -0.3540191081146267 -1.054101368472912 1.1023825127243663 1.048682146941194 1.0197929927553921 1.742477985462805 0.08174610533615387 0.7349774206778186 -1.9827913597607898 -1.4277195907860747 -1.3454853653099448 -3.4378474314687097 -2.9690208088034526 -2.8251157062903896 -1.1719848481310058 -1.5487901144216132 -3.148100825911985 -2.6470079856117175 -1.8082451625565656 -1.0244502254642371 -1.3067624154366915 0.5409640632287799 -2.4044157367747157 -2.595871627507011 -1.809956675749953 -1.2861566448761157 -1.0759936899132352 -2.9989874518763986 -1.2682815040454396 -3.2648777470213033 -1.6571342773246256 -0.763303522367034 -0.839945994647573 0.0926246583708967 -1.7479584923895775 -1.160312997891951 -2.251251319747998 0.14534465596066515 -0.2538231390708035 -0.9242628070233821 -0.35443100942230005 -4.305594572245669 -0.7942393900405083 -1.8442266019682931 -2.673300268837384 -2.164229104875536 -1.5801300374431442 -1.041254717798271 -0.9421456394216985 0.6631421371633996 0.017105867191369386 0.04323343349791149 -0.3120140109352698 1.5692418155112051 2.4371012645639514 0.24141403214464136 -1.4851260093559104 -0.8675532022967879 -0.5154499462907391 -0.4634714788678857 0.6728187272484905 0.3170869877841031 0.16325250706961345 -1.1288989823722626 0.559758279908428 1.0652571653322367 -0.13945633018551104 1.6612870701310827 -0.2904138298232293 -0.3090824435213297 -1.714009770265657 0.16844593791517398 0.16364044349450801 -0.06641095770912905 0.728961470629641 -2.535792165689067 -0.4605574226440715 -0.7430245827660332 -1.629826652551036 -1.2207184770315953 0.3965326725022905 -1.467460788317383 1.069056693342297 1.9582611340558405 1.6117726788698234 0.046117455512281 3.7062181134216026 3.4617317720702956 0.5353756660814895 -1.5393462376010667 -0.2298000414255951 -0.24789095906535463 0.23532232730055688 0.7106207090655553 1.641474464432558 0.4218789685643502 0.2500157835290832 1.0077759430413296 0.9120834318182738 0.5981443274530324 1.5390214473266128 -0.18638849797815224 -0.00549147028990582 -1.6299144213266838 0.39070073222491203 0.4713560788528404 0.2574682870688401 0.4970535094717651 1.6338321491747874 0.24206051196238515 -0.3503771159230555 -1.338755130121125 -1.7783493225549716 -0.9329927109981535 0.9943013354491509 1.0239163629097554 1.6013710662214333 0.06227275692853782 2.4108309678027413 1.4441634967784704 0.6337218194203331 -1.2726246000680403 -1.3432494606857277 -0.2668433774770123 1.2566517238852772 0.7868609828949295 2.502438820713719 0.4663890524146165 -0.28531178867195656 1.251272869662677 1.2533161167525138 2.1021999239370532 1.494735951119524 -0.1443539879408911 -0.0719965620451698 -1.3131640621986518 0.6117309731605719 0.5996311518183617 1.9511219004713083 0.6056169288157093 1.2628700155099062 -0.05255671616983174 -0.4012945597883836 -2.686542683433651 -0.7462361466846102 0.7454274678606981 1.0566795938360651 1.4867289374123125 -0.17271676046149656 1.2406993786493872 1.2378126093329225 1.2168880179976331 -1.3666821941794167 -0.018573289002234202 -1.0101281206446908 0.49132386301294195 0.6428676912328892 1.1755646743321302 -0.0036728849776557194 0.07259948174525974 0.6125771578415501 0.878767372249247 1.3647726673797134 0.8838482502653849 -0.7314440470765771 -1.9911818469262195 0.5843891794624555 0.6436913850243209 0.7843171970379624 0.5500379607330297 0.6217942847576942 0.9641068055429741 2.4372552906260805 -0.8203991958443174 0.26485081663688675 -0.508131248514518 0.3074303220806187 0.07055146416637247 -0.420525217221178 0.6280166950903109 -0.09193224555388013 0.7685425243451244 -1.2508245353106422 -0.6828611509632994 -0.8299345409988056 -0.2796039390160245 0.5915731445117446 -0.011462339410994296 -0.09007050678849007 -1.8547837319798237 0.28433782029030125 0.9673225637343253 -0.0619284327578706 1.8392570124005168 -0.5208604771003436 -0.30140649364002814 -1.6016729756320343 0.6951690302115844 0.32064479605851326 -0.22078698240296735 2.589399914163532 -1.1549426311038322 -0.5573940074691371 -0.8782907868075142 -1.4743175047467314 -1.6444637241458657 -0.8564325479656378 -0.5386479529400129 3.600181984798276 2.5832522492286265 0.12274911547759808 -1.3622624652315314 -0.5985554522758773 -0.33990143630978387 -0.4372221775323348 0.1535040079150777 -0.16121835682775093 0.04410963040247638 -0.33972108142461116 0.32586946983845455 0.3079057860615546 -0.3389313602365954 1.299731051588615 -0.3540838696347392 -0.30178702199654983 -1.925994935834951 0.0294300272969175 0.19756934708442256 -0.2187044527118939 0.0644722261965616 -1.3382761319741912 -0.6230698524297384 -0.4772673595570635 -1.8034243059127884 -1.3107587570441825 -0.5799673623026743 2.418166822596745 4.65688397300484 0.34351691253755035 -1.799062671311664 -0.9174669803065232 -0.6692115953842309 -0.33610671944930326 0.5061398080521295 -0.4038346402501324 0.004474965634573212 -0.9905559383099215 0.5368846069610232 0.7115171958891024 -0.3325075352625106 1.705835336925975 -0.6080146150212837 -0.3851392280220863 -2.542254660012715 0.20000555289195657 0.3326532132204544 -0.23368812974909728 0.30028288766398514 -2.111264778980713 -0.8961459658627163 -0.7513096497569052 -1.7992695878916722 -2.618998711896122 0.6717069918715438 0.6088387211863329 0.8609269931344248 -1.2017475731472664 -0.016253894915838715 -0.9077070395124881 0.2095248651568169 2.5553433705875217 0.5374576555580062 0.3794859002350396 -1.7258345283379082 2.540464245503651 2.371740435440353 2.38863084479953 2.1474835419303644 -1.272527253729421 -0.7271037935393657 -0.16777787272382483 0.9437900885101715 1.269789746190554 1.8961355444088643 0.9521815081389648 0.43413512953359323 0.314613799474976 -0.5830771100890861 -0.9449248016435279 -0.8274901863094822 -0.13272454531812636 0.0014940713228191508 -1.5367233221630887 -1.2779829871082613 -0.7296130276202155 -0.8147095084276192 -0.2156875532576482 -1.8949486813564875 -0.07435390191420926 -1.0249715500054262 0.0020081274318632524 -0.18883580256608457 -0.5882279434567502 0.7448650979315644 -0.42313449090122973 -0.6749425994705289 -2.483605094016849 -0.09641138716927902 0.05672434115033094 -0.5793803213715442 -0.12221771340971059 -3.0299127531911174 -0.765674827972899 -1.0028474366116695 -2.3594064075940677 -1.8727370868651503 0.05194186245406535 -1.5562613496154387 -1.1018915131023088 -0.6905642164825491 -0.6304239985707119 0.06755280632216787 -1.1440175330090083 -0.14333971204321794 -1.2169204924251984 0.03297779102396957 0.3205159256000694 -0.6874643036250891 1.3421243171299773 -0.46522817455478316 -0.5792875080199821 -2.4317408151471973 -0.007386807258455531 0.09679535364193809 -0.4896532724247119 0.03874997561342868 -4.110112662785416 -0.6418962346159354 -1.0896755979838904 -2.0282209613167637 -2.0138697348633428 -1.1027612681320285 -0.905227971777616 -1.915368733530349 -0.4634754027046286 0.6058571557013078 -0.1921483666002882 -0.47265873976455997 -0.6759378523683437 -0.6592702719375826 0.6044108802953647 0.44079039251376406 -0.12236692495440783 -2.966392179659131 -1.5810134034912413 -0.8740675708185685 -1.5636416331128558 1.2977924287652514 -0.2672990493372704 -0.3567652998448029 -0.22313170900839044 -0.804736990803578 -1.1569642286850932 -1.095982463673618 -1.6036276539893801 1.4757524106211592 0.8250911366241497 1.3337255772567957 1.9620816435197732 1.7125692713048375 1.3871605653417673 2.1760080855774375 3.20793996844025 2.3218157472040586 2.2841756400346527 2.1403033145226287 0.2787699683796451 1.5957226131183624 1.024703715907633 0.9556403725074748 0.7995275086927679 1.4070948502498455 1.2515856170455086 1.2244305344701572 2.6019628016803753 1.461169769545991 0.900908956403838 1.7331048426915776 -0.5432250514665949 2.2111163268736966 1.3557521586299606 1.191287357611605 0.261311858255653 -0.980118647369869 4.201832442483289 1.8195540885305816 2.6966829127498375 2.7972265589918597 -0.29573585740908165 0.0875059313177411 0.051147428784932454 0.7919357166828772 0.6217065524333142 2.915508861412844 2.4650443917665728 0.2799216289727138 0.44094256722264713 -0.5408948262429286 -0.9285683549271814 -0.8837410744550286 0.5847447664372263 1.4038421365283036 0.6769298287417577 0.9297490267631296 0.6366042303901784 2.7373081752759987 1.4911506627573539 1.9258365387497498 1.6719199708377563 -0.030627751053448504 -0.5040416719727422 0.1541111219563943 1.598497164455064 1.553897532701066 0.9690411785203862 1.511573666272408 0.464606529262987 1.2633247421596536 0.42291084522856587 -0.23102815582585287 -0.2658536985987202 0.70855461218025 0.6583300252960782 0.9763931794967348 -0.32859669701179356 2.0792581623858335 0.9893921735627077 2.560238916726542 0.9765619371953471 -0.4938785214882448 -0.355247120919974 -0.6910501381296013 0.3958282790086584 0.3541528136957115 3.803644921127734 0.5271455083371623 0.31450877503719604 -0.05245752256845092 -0.8223107774034434 -0.9786496497538911 -1.250334165882083 -0.33973824559851307 -1.685736166567533 -2.176752256491969 -1.4114786057438369 2.004330839841 -0.07235586587242647 0.7912542720002573 -0.8486452200118447 -0.6919683638892681 -1.0140598170833681 -0.05331596244198344 -0.5800618367911968 -0.33125324052352634 -0.30906146832777065 -0.438881734555046 -0.583995111043734 -1.3673795155815134 -1.1541925183438675 -1.2991887836491351 0.07400568092184467 -0.8863265453149239 0.6511491084286446 0.5854971120638559 -0.05530065945835696 1.5257078543355345 -0.4555477190879835 -0.3966623853032368 -4.439877848398667 0.15297607022000476 0.23234672255315036 -0.10696410980615192 0.25716822505773806 -1.014463896704771 -0.6615441803726305 -1.023041808284603 -2.9554790736847028 -1.9536307376631998 -0.4369238611087924 1.8801103680228384 1.4645751576033244 0.24526313895156787 1.6773538493899653 -0.2509163926116858 -0.17680966410597518 -0.41455167357406 0.7653439493384991 -0.17449661319907628 -0.5305760281521463 